{
  "layer_sizes": [
    784,
    128,
    64,
    10
  ],
  "learning_rate": 0.001,
  "activation": "relu",
  "weights": [
    [
      [
        0.022292064097187557,
        -0.0403867662436536,
        -0.062236286823432505,
        -0.0428473873373914,
        -0.005207779959357917,
        0.03538252653832238,
        0.060079197402352194,
        0.006296751957596828,
        0.02003997156121808,
        -0.03887156800115836,
        0.0026429679897240544,
        0.015323606420470778,
        -0.039680048673386675,
        -0.042474853349081854,
        -0.05504283681854926,
        0.022596274484350334,
        0.0021694152254662542,
        -0.02333528817248927,
        -0.01584730120296246,
        -0.01068682493016043,
        0.04190571140657174,
        -0.07880909194748416,
        0.018669627490978537,
        0.0872509923222035,
        -0.05634668453420785,
        0.002499264561449349,
        -0.0927457185988408,
        -0.014247366295038436,
        0.015219800391251717,
        0.0061741558095264265,
        0.027520669704867887,
        0.08140748980028169,
        0.0069643947522049525,
        0.011520329375566574,
        -0.021214183332593513,
        -0.04419595272749256,
        0.05753040048661285,
        -0.07022312266316727,
        -0.12577481301298268,
        -0.059912527191350616,
        0.06711503907668867,
        0.10553374428913748,
        -0.02269877816333153,
        0.031154233371929258,
        -0.004059456674642423,
        0.06284259639238442,
        -0.05394587876302908,
        -0.02333510876869843,
        0.02341116130522448,
        -0.010221923889877646,
        -0.011643608237175458,
        -0.0855662526782989,
        -0.028088410592630304,
        -0.027370541838007936,
        0.047112050720836005,
        -0.010118107315923988,
        0.13649784540156282,
        -0.049599009684284316,
        -0.010427485225314498,
        0.10203288491671039,
        -0.0551289768817191,
        0.022982291770552596,
        0.0658895403138625,
        0.0031941920417439956,
        0.06837117964661511,
        0.07364632145177068,
        -0.01151933079528369,
        0.03205906418135477,
        0.028785178156201876,
        0.038910458527948916,
        0.08377694478617739,
        -0.04682267915398001,
        -0.027399272177113583,
        -0.040675414904907545,
        -0.11056988307038844,
        0.0037081623296513658,
        0.04921545577300244,
        -0.050744408768990786,
        0.05025337524730914,
        -0.022762754238181502,
        0.06192653918174895,
        0.028959650731763542,
        0.012591622470081481,
        0.06356072033286043,
        -0.007687236999775696,
        0.03729190131076597,
        0.058106355599560136,
        0.010339705302124438,
        -0.025367287062943302,
        0.021121582523735003,
        0.07710596583612757,
        -0.019753578227901428,
        0.02142291128533482,
        -0.08202907803481815,
        0.06227072547995592,
        -0.01429182645385503,
        0.08390401069490011,
        0.04345593059192501,
        -0.10149269577199628,
        0.09274126928982722,
        0.015140955491985386,
        -0.0666225263654621,
        -0.053100548766542896,
        0.02676866872631965,
        0.040048481633598816,
        0.00981095915944777,
        0.029982092682176407,
        -0.06256869203191777,
        0.011297559725537695,
        0.016910797139009646,
        0.0465272229289976,
        0.017564647683088026,
        0.015298551570453622,
        0.012196824071076662,
        -0.009742469868656985,
        0.03583990023156341,
        0.01699523481070287,
        -0.013368527565832917,
        -0.026064105090237842,
        -0.002760718839493348,
        -0.059262573324471025,
        0.06876814636478765,
        0.057556190377431815,
        -0.08460978064826799,
        0.003845701704595724,
        -0.038839776135989004,
        0.014717657164902326,
        0.08477987417996141
      ],
      [
        0.03562759454596105,
        0.10317350599979395,
        -0.015757302570418335,
        0.11240054757794725,
        0.10127010982900206,
        0.023069757314641885,
        0.05010283870047017,
        -0.056283843800733174,
        -0.03203940817126981,
        0.04191038338156009,
        0.024507385904248162,
        -0.010683230424091366,
        -0.04113455298149931,
        -0.008933874176845769,
        -0.03182592678196367,
        -0.010675632787774144,
        0.06079713450610735,
        -0.07309296074821463,
        0.03237247456834069,
        -0.09059132778146511,
        -0.036237863471088594,
        0.05941117819020549,
        0.017789874389588296,
        -0.032311588392964614,
        0.031201002019082637,
        -0.027791566237365506,
        -0.020675633339428946,
        0.05093128931192671,
        0.011091173708076874,
        -0.07293907214797293,
        0.04428519481885846,
        -0.06043529928335418,
        0.0217709426880145,
        0.02352862861739088,
        0.03337045574139816,
        -0.023174404052703528,
        0.02305617310992549,
        0.007490040751002524,
        -0.0255268529370595,
        -0.04058790030166334,
        -0.010400179064478845,
        0.07666628902454739,
        -0.04854471452143371,
        0.009948475404310044,
        -0.0626046669469215,
        0.006064734937953576,
        -0.01079254118723434,
        0.030717010550930922,
        0.08817285934412077,
        -0.006804614162832884,
        0.0506957952894145,
        0.07618647770941757,
        0.04231449175436723,
        -0.10990831666649936,
        0.004036361688049739,
        -0.057355627405695,
        0.04662581284988478,
        0.004099640110433763,
        0.12772220984859475,
        0.0002636135648300417,
        0.03052914196936593,
        -0.01623932143985312,
        0.030349214221442638,
        0.04314199516943191,
        0.0034163087948495606,
        0.008083802394380052,
        -0.03450430490548501,
        0.03846209572030472,
        -0.011503368970588032,
        -0.0907380267794439,
        0.048676621891035984,
        -0.021461662281752645,
        -0.006811924692616469,
        -0.008091149279588757,
        -0.0004945025958918722,
        -0.0797945581686647,
        0.04521073175910417,
        0.058112277956494776,
        -0.008481766688326701,
        0.018578724108296377,
        -0.051165899788851534,
        0.0892267576716037,
        -0.029927805019001684,
        0.017536398680624947,
        -0.047179376188236415,
        -0.09588217680315343,
        -0.014946291333042953,
        0.037893629019611304,
        -0.06180975485127248,
        -0.031048898016082755,
        0.015059126972152932,
        0.0010176673442238787,
        0.00591229241193797,
        0.005850854897667816,
        0.08446979748816205,
        0.061992578033278414,
        -0.008524874091591564,
        -0.04626479381579603,
        0.08508765027623885,
        -0.036553154787331,
        0.03202075383373966,
        0.0535427602356619,
        0.08220127027372137,
        -0.15371821233778823,
        0.005254981490705551,
        -0.03186306071723048,
        0.056907619287289456,
        0.05255045671489935,
        -0.014004059897921655,
        0.07451290555634532,
        0.06287847312349311,
        -0.03722683652841933,
        0.014113317668391356,
        -0.07713830333267128,
        0.04167012942187091,
        0.015157528828387425,
        -0.010892783004530313,
        -0.003797357216573344,
        0.015130693414967637,
        -0.07406700460653586,
        0.04094060798474381,
        0.027532732791938328,
        0.023628230596975285,
        -0.00023035920836709698,
        0.053673257217036634,
        -0.007979401666050946,
        0.05132703949633379,
        0.06007950036580831
      ],
      [
        0.06786191943621056,
        0.05070730216676871,
        -0.03563435216639656,
        -0.06533518093669813,
        -0.03613041108874971,
        -0.07515265726393512,
        -0.06835184720162092,
        0.05589838074215971,
        0.023448980503487343,
        0.07714370595693547,
        -0.022400186658973528,
        0.011120864138814537,
        0.05472535061342699,
        0.052403673582902044,
        0.04311070646871378,
        -0.08561375023890087,
        0.06964306725010269,
        -0.028975805267741572,
        -0.10219267908683592,
        -0.013813236593157327,
        -0.02567268387465109,
        0.025522900867401797,
        -0.06033868486823738,
        -0.05467391515815578,
        0.025269679507261934,
        0.02219220072766697,
        0.017406318623635182,
        -0.05243969840668111,
        0.008048855145398492,
        0.05325338409274941,
        0.03996021109086776,
        0.04570212607048356,
        0.0033742557916690685,
        -0.03524212252347111,
        -0.021647542660458933,
        -0.015602436258048094,
        -0.020304898478833846,
        0.10172427900786886,
        -0.06168511384115527,
        0.014880829027235804,
        0.010077588143680991,
        0.03937178795842464,
        -0.010963362731082072,
        -0.06362193190917387,
        0.0443925256980953,
        0.17895775670435382,
        0.09110526245532888,
        0.0564579255752321,
        -0.023152611776587985,
        -0.06061867170541568,
        0.051122352026132155,
        -0.11485204123654887,
        -0.02898871858541546,
        0.05722480343663934,
        -0.006122266290328783,
        0.03622029257204207,
        -0.04183902437710345,
        -0.01964270754815539,
        -0.053525930899430745,
        -0.026207708739910667,
        0.04017889387273776,
        0.047116309967525284,
        0.0015035589165214736,
        0.02823820046528492,
        -0.031071127706150246,
        0.023804974306605418,
        0.02159483742946669,
        -0.04988476480218749,
        -0.08013318823059203,
        -0.027267677964338363,
        0.049163413483593134,
        -0.07027527802238515,
        0.057769771650073465,
        -0.025659633693965688,
        0.011774499375040569,
        0.023595825814381383,
        -0.03349671725671775,
        0.01666371644513568,
        -0.01747612181192804,
        -0.0550818752755174,
        0.014498163325173254,
        -0.09150579025532209,
        0.02591633496343022,
        0.09019725739492922,
        -0.010201515787542982,
        0.09439625955916393,
        -0.0032380785941253975,
        0.03318877087770509,
        0.010372147196056869,
        -0.015190068886320983,
        0.07329474963743947,
        0.026208797654087724,
        0.04468957078572742,
        0.05608119613274562,
        -0.012111208679872278,
        -0.06399463704306685,
        0.06841225375344825,
        0.001082665461629876,
        -0.06035812499163882,
        -0.07698257277286619,
        -0.0030135826222555577,
        -0.0552197122711964,
        -0.06040143410305708,
        0.08214017407807278,
        0.04361628223874006,
        -0.06301338876711729,
        -0.06884219494908483,
        0.10189428893759385,
        0.015483835092455446,
        -0.03349205603746593,
        0.14594064028765222,
        -0.0549112638167542,
        0.003093358634997684,
        -0.03782070184541206,
        0.077531549918987,
        -0.10535050484668264,
        0.027110949747536816,
        0.006283286068215796,
        0.03257712426882874,
        0.025078303655342873,
        -0.021083963757994127,
        -0.019034743054599488,
        -0.019837463563720372,
        -0.0380129892506621,
        -0.05185253288513686,
        -0.02786223894403521,
        -0.0482688509659757,
        -0.03551254611531632
      ],
      [
        -0.058163780483631425,
        0.017409843066454732,
        -0.03513241921660532,
        -0.004445608195695144,
        -0.08543625331270359,
        0.01620443789579831,
        -0.07835943048089607,
        0.03426261304342218,
        -0.09430899374979304,
        0.030764713177595444,
        0.05022184109941064,
        -0.12571138424760037,
        0.006060255313629026,
        -0.07409092522335363,
        -0.03743118707183501,
        0.029946088480405354,
        -0.013701774333458261,
        0.04312049926444207,
        -0.014680860647213618,
        -0.012983663671252019,
        0.0702701596751181,
        -0.07879959841629518,
        -0.02627012041265719,
        0.08901787367230972,
        -0.0217013335536282,
        -0.02866784732516639,
        -0.0468448499114629,
        0.019386686325788716,
        -0.06283280926785094,
        0.056956464928005,
        0.02543431389084383,
        -0.0022708800542172473,
        0.06239608567517882,
        0.019464805690736275,
        -0.04285972454869254,
        -0.013133815520409195,
        -0.1469671307221446,
        -0.011640764907001172,
        -0.03938169526708554,
        -0.0812681985888588,
        -0.009788957707893918,
        -0.09706236662115411,
        0.008442517554821973,
        0.004772162785679407,
        0.08668670870845677,
        -0.016153090692003408,
        0.048673739133139694,
        0.010807947427417667,
        0.02194833131602388,
        0.011020373951260114,
        0.018850220970080392,
        0.03446452130605034,
        -0.09025752959133145,
        -0.06852866634204884,
        -0.040139541006061555,
        -0.0016551481122464467,
        -0.0796334392287869,
        0.009687944523784095,
        -0.018336058112594006,
        0.005290680115119672,
        0.006191973947784166,
        -0.06736812833696251,
        0.022359618628177487,
        0.11226502216667815,
        0.016312588170986297,
        -0.04819723157448709,
        0.01859737689088009,
        0.14022252688008943,
        0.04369638407781865,
        -0.019547667498490302,
        -0.0599190006674386,
        -0.018473854885858062,
        -0.04178366097306992,
        -0.04491687503543495,
        0.015377615561899252,
        -0.025050157650749912,
        0.07061313110628094,
        0.021809972280945975,
        -0.06843434965570556,
        0.008159160331805172,
        -0.02465690159981525,
        -0.08051104661541625,
        -0.0285831988381815,
        -0.00876017686990669,
        -0.03455794219507609,
        0.047424181414408795,
        -0.03536649322606083,
        -0.0670302485657412,
        -0.09197748270719253,
        -0.056960441846603274,
        -0.008850375945892993,
        -0.04099738665875571,
        -0.03419827840687093,
        -0.10920900390565617,
        0.030230538571157067,
        0.01645372607573422,
        0.021161256538667066,
        -0.10098484694331158,
        -0.06662117381714396,
        0.020230946956035063,
        0.02877977995330536,
        0.01443366199457415,
        0.033161574365411374,
        0.027867471071680187,
        -0.002449517748861449,
        -0.12292862668789634,
        -0.024719154551868103,
        0.01347946834634591,
        -0.01462625201783594,
        -0.03427874114082571,
        0.0029248144556852313,
        -0.041674365371784546,
        -0.055174769851831035,
        -0.08851560636404333,
        -0.01093178784764619,
        0.003702401088981751,
        0.02187604984279047,
        -0.0015807976548793978,
        0.051747039058480396,
        -0.13899838888406113,
        0.04384985055567843,
        0.001759576442051797,
        -0.010599218063346865,
        -0.012366073067397832,
        0.011169110414132504,
        -0.015174440988684283,
        -0.015117074556722197,
        -0.008476039300326407
      ],
      [
        -0.024164318224746316,
        -0.015225590611898708,
        -0.016748301870669637,
        0.032834031070026214,
        -0.021013676279954086,
        0.06609925421318831,
        0.06287641020068155,
        -0.034632879082196394,
        0.026446004842788282,
        0.034699804269811216,
        0.016487360915924443,
        -0.04080580084655159,
        0.002040023719189489,
        -0.07345424151517746,
        0.05976303403806635,
        0.03369394072153641,
        0.06044877681089378,
        -0.016127123767524426,
        -0.07522459333392784,
        0.029728444410199166,
        0.036777386301302964,
        0.02077699991936155,
        0.016963243903051695,
        0.07122882567058753,
        0.005817525880093812,
        -0.024207243315229766,
        -0.004658200105564292,
        -0.038804344241290846,
        -0.048919892771842374,
        -0.016339287578333105,
        0.149942828000427,
        -0.0057166271293482025,
        0.020872438592333373,
        0.10183468760785792,
        0.07488907738373894,
        -0.09114698648672029,
        0.06876784903579719,
        0.0380276076056273,
        0.0012572086047072202,
        0.01232666254933165,
        -0.0582600768110993,
        0.025226159615572175,
        -0.011183426190090337,
        0.04460613960884739,
        -0.008102402864651732,
        -0.0855876725585335,
        0.021862554308957033,
        0.05724189285123702,
        -0.061052155642040314,
        -0.06387826265272419,
        0.012667633053299055,
        -0.006211338143748607,
        0.03922468154070411,
        -0.057336421906734596,
        -0.02290997138034384,
        -0.04165031027227139,
        0.021070420831481522,
        -0.04713071900512946,
        0.0306564521140418,
        -0.040769734938983254,
        -0.06468243734961336,
        -0.003205806586480832,
        -0.13172443709524423,
        0.033076033153507406,
        -0.05848433986180784,
        0.03387745438500267,
        0.020371642155832467,
        -0.0562010345013322,
        -0.03020994391196764,
        0.027106191346792995,
        -0.015596337907679428,
        -0.005436962691853104,
        -0.02924510808720951,
        -0.052173774653770565,
        -0.07158091106155036,
        0.028809805138211617,
        0.0926119732227605,
        0.026192418489927375,
        -0.050743249447168376,
        -0.05849544047813023,
        -0.01749894281661444,
        -0.05545511639196376,
        0.06576242125648087,
        0.06050309588122735,
        -0.0024227348757218646,
        0.0003060188173258862,
        0.022432420715477068,
        -0.09319393424873047,
        -0.03094826201344994,
        0.09156815823771661,
        0.013360148405454042,
        0.006962416702503529,
        0.014995285075491603,
        0.05129998691190318,
        0.028669654138994596,
        -0.09504071561961969,
        -0.030001866503214406,
        0.07160695271116774,
        0.043453435563702375,
        0.03850791745125307,
        -0.042185615023613475,
        0.04591658521459337,
        -0.04576581336331479,
        0.016751340306223713,
        -0.025553315600476367,
        0.014957864813803208,
        -0.06994277162595199,
        -0.0007363242107599813,
        -0.024138493198835542,
        -0.1096731543938977,
        0.12444368163954585,
        0.05229148269485284,
        0.05696256614927558,
        0.051118996510033314,
        -0.015689452963188206,
        0.005739149268396116,
        -0.014076084305470917,
        -0.03784567342145649,
        0.010638884606573806,
        -0.03980574531086891,
        0.03682424746798741,
        -0.028140969293560525,
        0.0007289139011284128,
        -0.019740804270359777,
        0.019035635952792243,
        -0.06502324642177547,
        0.06392191611139796,
        0.009278473891902653
      ],
      [
        0.03302091383882357,
        -0.02490169637823554,
        -0.012835786006925939,
        0.010052594895730122,
        0.1295227504490946,
        0.022688151691053354,
        0.05548401116789033,
        -0.012208643213281727,
        -0.0016286426496209597,
        0.024602263700340212,
        0.011694074806930964,
        0.019165485057989966,
        0.018077302108091966,
        0.06648763734753423,
        -0.12653973925715364,
        0.000753015028494552,
        0.015060877688322354,
        0.006212075758765566,
        -0.08698026469310914,
        -0.043790814898879385,
        0.048944088526458304,
        0.09675326494776719,
        -0.004240120798934736,
        0.09666929715452328,
        0.01456980046360126,
        -0.05870971064558991,
        -0.06701464350131534,
        -0.03161599534445675,
        0.0076740562132228555,
        0.020295948848424547,
        0.03779485759114297,
        0.06107297323827597,
        -0.0005842550925414405,
        -0.022157226854752233,
        -0.014293462537942553,
        0.046329439538708196,
        0.09358177382064799,
        0.01204065468954931,
        -0.026786478988243368,
        -0.006742499144361971,
        0.07660270054109902,
        0.050761740070079615,
        -0.00665026879924331,
        0.0173600172035096,
        -0.030674225529852196,
        0.02070418536871415,
        0.03359778732306253,
        0.09741351914188767,
        -0.028456669020414084,
        -0.08035068976171508,
        0.06476509217356667,
        -0.04852708206947858,
        -0.0563915079793802,
        -0.018745270215787972,
        -0.00048688631955976083,
        -0.021738062677210374,
        0.0247295526722682,
        -0.10375982681117657,
        0.06754185339654901,
        0.11809868580588342,
        0.0037089700957310687,
        -0.022760439956028874,
        0.005065851146654968,
        0.017383018047094724,
        -0.08782177505716099,
        0.044016902083290725,
        0.01704116731589663,
        0.07007306437328005,
        -0.04847784566114455,
        -0.09025695758878721,
        -0.012400470722653682,
        -0.056094001247778046,
        -0.06729767352610294,
        0.06527873552698071,
        0.01395795309223533,
        -0.04813659536160001,
        0.02583679949825478,
        -0.017925738177080618,
        0.05604054934434247,
        0.0257036033495231,
        -0.02263068227300571,
        -0.05983394035962893,
        0.04133820900476518,
        -0.0018210638193457776,
        -0.02107486607694114,
        -0.0008469580673640213,
        -0.06373749213075607,
        -0.009364827504008738,
        0.0566376871268634,
        -0.04622026306156913,
        0.026284389758734535,
        0.06432356647508111,
        -0.05027897656343286,
        -0.08835199308240677,
        -0.015977430815938238,
        -0.06940563174832849,
        -0.05683763810111828,
        0.02076027828515167,
        -0.12884455288273633,
        -0.01103697127644322,
        -0.0017133769575971155,
        -0.012114083081184791,
        0.011994573267628636,
        -0.01525178163737562,
        0.05775821014059215,
        0.0017128000034403804,
        0.026702548151326076,
        -0.003787169850477992,
        -0.012824371891275084,
        0.02053661617700033,
        -0.05364470515715116,
        0.014684167227124035,
        -0.012767889419948369,
        -0.0007578027456293039,
        0.055621943021734385,
        0.04759964591458281,
        -0.019259741058042585,
        -0.030851679283413924,
        0.003386129744071301,
        -0.052441454805610355,
        -0.007514827300140182,
        -0.055862884788289796,
        0.0544615337124934,
        0.08944668126039984,
        0.009665857306149828,
        0.04859695388995443,
        0.08126635203560621,
        -0.010955283088969255
      ],
      [
        -0.06423023869640983,
        0.04447103007700544,
        0.026578831351835506,
        0.003524753401315458,
        -0.004069340042600758,
        -0.08369042299183763,
        -0.022837201675503887,
        -0.007684592892305512,
        0.0444074252095015,
        -0.0014394077821188835,
        0.0805600201181597,
        -0.09200881352162452,
        -0.0490696671943178,
        0.06457849343294317,
        0.020041416871357992,
        0.05236339340758936,
        0.054341459949588417,
        -0.06802064759315944,
        0.02708127899242621,
        -0.016580463300328092,
        -0.054720827520923346,
        -0.02212768471209221,
        0.06033769054005993,
        -0.00968521356552393,
        0.07403292201044853,
        0.1039134885976011,
        -0.0341772701013633,
        -0.054139216110777676,
        0.009750829165975,
        -0.030067136979158117,
        -0.06700695841317088,
        0.05389269370282648,
        -0.016925669245051952,
        -0.04684001803972107,
        0.04063681701632844,
        -0.016446251625534328,
        0.06603135413141836,
        -0.017918930418832246,
        -0.06135330955039131,
        -0.03128832728062347,
        -0.013205971306450293,
        0.03243728643829851,
        0.08186286952376945,
        0.013406346241880425,
        -0.008657412444282524,
        -0.014784270596645454,
        0.046209575485147994,
        -0.0752728095733035,
        -0.008916427352953329,
        -0.06840825798924355,
        -0.008282239637158594,
        -0.0017724987747334546,
        -0.010732120416312808,
        -0.01105758080208188,
        -0.042038480606845285,
        0.016296568927295554,
        0.004391327774907031,
        0.05472956409998029,
        0.06220859095374117,
        -0.03924193685874041,
        0.06461095425754067,
        0.06950556738280397,
        0.010475123207098902,
        0.03955703676169153,
        0.00491448402344674,
        0.010072550390375211,
        -0.002668178447303255,
        0.0007453040605351924,
        0.04272201692291555,
        0.0476187430631487,
        -0.026513857729723693,
        -0.06159036735592022,
        -0.020407771612689547,
        0.03276008366684892,
        -0.08464372284040986,
        -0.04490171742017605,
        -0.04167398568766657,
        0.06463421639383608,
        0.02051908180382889,
        -0.06374921304346655,
        0.0040233575947029076,
        0.036352693151782974,
        -0.027728466764648404,
        -0.018083017979768884,
        0.0006678710884085684,
        0.007753070206239613,
        0.0181626605437859,
        0.03846685583538839,
        0.032383523403351676,
        -0.059842872567399195,
        -0.09176194491007031,
        -0.04598462913434558,
        0.022913310671247716,
        -0.002249951787098198,
        -0.0102690094367443,
        0.050962935318858794,
        0.026604225443402275,
        0.0056963748295858025,
        0.010725050905207801,
        -0.0019198686234350166,
        -0.007967954170364206,
        -0.02539879191413993,
        0.07162668121017902,
        0.08458112026498489,
        -0.14394041750157688,
        0.050665270900471966,
        -0.00279849573348146,
        -0.018791458737227054,
        0.0494997752619927,
        -0.10611533809600054,
        -0.010429937223860567,
        0.029338913042915436,
        0.07084887216830967,
        -0.07724281770031008,
        0.0009263521317965411,
        -0.0637152488851063,
        0.04421953779489181,
        0.03676242589407573,
        0.04904198331517746,
        0.03487485420089407,
        -0.006173384267163599,
        0.04443145872183937,
        0.005307716931387064,
        0.018685113005773073,
        -0.030984717990753734,
        0.03686712092279151,
        -0.05747559325598586,
        -0.056110852710519916
      ],
      [
        -0.0029728087765598225,
        0.0063218723532463,
        -0.019093030541715503,
        0.0313367617316757,
        0.003129697705406246,
        0.04311375017804505,
        -0.052310017733820185,
        0.026435468430725924,
        -0.010866092888033887,
        -0.0725289043531249,
        0.0648241851661159,
        0.027476067514600674,
        0.006129768670083443,
        0.025333402476192073,
        0.09149018600382881,
        -0.01556370315519411,
        -0.022983460887838838,
        -0.02981029031250934,
        0.031751575418506046,
        0.09109134731506459,
        -0.06053834580926165,
        0.005092437784178985,
        0.05466711940923211,
        0.03286192984354369,
        -0.08125399430295507,
        -0.038296241759815754,
        0.036710545639771344,
        0.07196864230779508,
        -0.10376013808671802,
        -0.01872789142889085,
        0.043122037147595084,
        0.025610080694222062,
        -0.12289918837800451,
        0.006096651260599633,
        -0.07287047920001914,
        0.010663605227379597,
        0.004492397856889878,
        -0.021488906903974578,
        -0.05141335970215893,
        -0.0324905871214199,
        -0.005922612978984862,
        0.001591776193440779,
        0.036962646899897394,
        0.03304172601742755,
        -0.03056184085047832,
        0.037134571358093824,
        -0.05710678287674275,
        0.03907245778238939,
        -0.050416442292744605,
        -0.11292950109861813,
        -0.037871365133149794,
        -0.06329622263038424,
        0.019905505489053985,
        -0.01431036952755499,
        0.06490046142040116,
        -0.007676256287574791,
        -0.08121462200626856,
        -0.020811211117903395,
        0.0009759021116576911,
        -0.006960835068533768,
        -0.03185476269569204,
        0.09512772773664076,
        0.023304470947184516,
        0.11176251826984662,
        -0.004389114849739028,
        0.07315167897169261,
        -0.0003842137418854581,
        0.15295787788536594,
        0.023638824586793616,
        0.0740268386870882,
        0.007094732964962004,
        0.02884388372762562,
        -0.018319454511119698,
        -0.05543554796283305,
        0.03820226612433512,
        0.06019732254905166,
        0.012526945280008795,
        -0.01939957687197601,
        -0.044104423074763345,
        -0.003696708713562924,
        -0.0717037591247686,
        0.0769116117389604,
        0.013441020954316438,
        0.043743479779938754,
        -0.021094507194146763,
        0.012715329498911163,
        -0.023409998518328323,
        0.013387019361158096,
        -0.0007439867310606899,
        0.02077168418500586,
        -0.04616157773005076,
        0.0006326502650210656,
        -0.029565012037383816,
        0.02579943275459295,
        -0.05837354695296628,
        -0.07095561902420985,
        -0.0048387295872200035,
        0.06683334687222187,
        0.06756647226068918,
        0.09810553404474688,
        -0.07280480587006355,
        -0.04207197226941902,
        0.040017793017270195,
        -0.06334733114609316,
        0.007912495937107251,
        0.015401005068565529,
        0.007137367654107776,
        0.023678622851859,
        -0.035974486157477184,
        -0.04748539420498092,
        0.0263498145646739,
        0.008768269844160383,
        -0.022475202804362788,
        0.00042088541228411274,
        0.0168182061934669,
        -0.041170945989853706,
        0.06292761007682421,
        -0.03841172291750783,
        0.019821120511417684,
        0.04437167429379545,
        -0.021090359150905978,
        -0.0016728513656684985,
        -0.032161277794016584,
        -0.09041346538121504,
        -0.03816217041534432,
        0.04103883140581613,
        -0.034875500087623745,
        -0.039714098539285037
      ],
      [
        -0.0010948396172426158,
        -0.015360430224068772,
        0.04263724681692466,
        -0.011664569725197924,
        -0.008199370777711872,
        0.012433879019394904,
        0.08136035416467707,
        0.058368259624906695,
        -0.1139433448209489,
        -0.048936716915439944,
        -0.10785705222011736,
        -0.04323715254737544,
        0.05176089488679102,
        -0.0995317896376432,
        0.03302522561184615,
        -0.004784675176699896,
        0.038010093588465736,
        -0.016630158634403647,
        0.01601524699725438,
        0.046832416565323456,
        -0.09182052648634319,
        -0.017919791601490535,
        0.006310298626610436,
        0.02039349835150477,
        -0.013041394599207055,
        -0.01753591578372083,
        0.07869232908253655,
        0.06972104552747449,
        -0.049147198798350764,
        -0.059698173926414105,
        0.01398663898112664,
        -0.05118977603599551,
        -0.01276427926162037,
        0.08076636721033632,
        -0.011524283599207987,
        -0.07006900586155329,
        -0.022205129439846094,
        0.020663973620432718,
        0.007572398340518348,
        -0.0031574556377457156,
        -0.055846080865814746,
        -0.002199980114651054,
        0.03137424092072889,
        -0.11341945521379995,
        0.09385324482606726,
        -0.04512722756982145,
        -0.07894806441967803,
        -0.028359244066906698,
        0.07820231326980694,
        0.0046730851092421566,
        -0.06274393364587555,
        0.023609277457641055,
        0.057569201517148574,
        0.06302747376096711,
        0.05318225699240827,
        0.006092133944515704,
        0.00807845739068111,
        -0.00405171699298281,
        0.05302550945138997,
        -0.08210510360564403,
        -0.014605128451659755,
        0.14059154389510922,
        0.02916569567706642,
        0.06430857383624242,
        -0.0029039104021163996,
        -0.05434440582523275,
        -0.02304241994968261,
        -0.026017522346099706,
        -0.0635690691334387,
        -0.02879352087661238,
        0.05308669487151043,
        -0.00823974527582252,
        0.016116751404996965,
        0.00895577965596557,
        -0.05285400849512951,
        -0.009345769862232574,
        0.019919204851731317,
        -0.0040461163268349885,
        0.07231882806525412,
        0.016199978748307014,
        0.06966831796753688,
        0.04792711954761244,
        0.05941061371929675,
        0.06162016457993653,
        0.03909707063658974,
        -0.03902466033701687,
        -0.04047187202978397,
        0.020643416092275636,
        -0.008337976751119268,
        0.018769947372793076,
        -0.06354480145257789,
        0.10189182106626457,
        -0.07013409572188212,
        0.04903902721720645,
        0.029110600999352188,
        0.02470258992027916,
        -0.10753742472122417,
        -0.026886300134048337,
        -0.002568945408471104,
        0.010613161363474673,
        -0.05030076019596452,
        0.031629051359762836,
        0.02280614972624465,
        0.17923390091580083,
        0.017592443838142336,
        0.024357424424455647,
        -0.03974916082437288,
        -0.01681225530786236,
        0.03570873352630992,
        0.0658527966251106,
        -0.04858343342841357,
        0.03807795171697185,
        -0.031558384712236404,
        -0.03752493968684431,
        0.05080234970235258,
        0.022246053820342924,
        0.06320134956432413,
        0.006493075275722838,
        -0.08807154391442504,
        -0.0012505739463326065,
        -0.05439404972029285,
        -0.008538617277286602,
        0.026383891477250346,
        -0.07212603310702637,
        0.1420814725618557,
        -0.05622907380139798,
        0.0005380838197885987,
        0.056939299603170825
      ],
      [
        -0.036139983189030694,
        -0.035532700926181576,
        0.012264490585004888,
        -0.007657847619354712,
        0.045662983266921,
        -0.06790489678730115,
        0.013102145073740896,
        -0.12557188730936192,
        0.043950312546836484,
        0.057771542323599184,
        0.03978899813560309,
        0.000410923044149464,
        -0.0004630260031186389,
        -0.06865317347369106,
        0.01678104246776258,
        0.06323597518621074,
        -0.050645568977407684,
        0.010443604359408417,
        0.0004394741171063734,
        0.018297068502087115,
        0.019568582644487662,
        -0.059194694177328304,
        -0.06838508029055483,
        0.014771668487849903,
        0.046437607637837074,
        -0.07419421913985064,
        -0.026709077958337248,
        -0.03586364333528463,
        -0.0026569623521480678,
        -0.033695265165875336,
        -0.06164441914956361,
        -0.0852228885638251,
        0.03692443091605925,
        0.0022317436205492474,
        -0.053320419250166805,
        0.02132093781706957,
        0.040919454285358585,
        -0.03882659597587229,
        0.011533779789586404,
        0.050482580258606774,
        0.0013051416215178163,
        0.04810644381655598,
        0.02314145409998829,
        -0.005191104073266853,
        -0.06934490121202427,
        -0.021885133252109296,
        0.021447465698608795,
        -0.0738749161194092,
        0.03077032722833843,
        -0.0358354701908797,
        -0.01932760053483876,
        0.09447532781938973,
        0.06157346015687109,
        -0.01470066246844759,
        -0.013388220615272116,
        0.006144257185464518,
        -0.0925969984837032,
        -0.10423590327399247,
        -0.02814760864979722,
        -0.03030833756177025,
        -0.046370170813835605,
        -0.014493497621243818,
        0.07348037112861953,
        0.03426767781215103,
        0.018344876674357205,
        0.06541668983366886,
        -0.0288665414060282,
        0.0574407816581634,
        0.02150890387167843,
        -0.0782346117694042,
        0.01373217711626659,
        0.04208007060125412,
        0.0726333673316021,
        0.03093525051895699,
        -0.004182215759124436,
        -0.022598903412676997,
        -0.07159660535117568,
        0.007445558590980457,
        0.08140502805830904,
        0.03332172111317889,
        0.07018870450571965,
        0.0009343176484337393,
        0.0869318946058173,
        0.02584346418183056,
        -0.04080242618211681,
        0.030587470379817024,
        -0.017656831975468603,
        -0.04702362254296879,
        0.019626335368606963,
        0.012938037805528317,
        0.008669560339540758,
        0.05157157266529695,
        0.0031923282232948886,
        0.06387401096662086,
        0.0459214846873362,
        0.000364743685413254,
        0.10293037481164134,
        -0.051716041550603005,
        -0.03337676686527331,
        -0.03194944822293631,
        -0.05540258746075449,
        -0.05173987406482747,
        -0.04741034924026629,
        -0.01145731529360843,
        -0.0835251431376841,
        -0.07458668500265102,
        0.04641635006411144,
        -0.09129279312057767,
        0.009001214295894252,
        0.03810732342447089,
        0.028071182552864084,
        -0.009511560623144831,
        0.04549466287080105,
        0.0650283115828311,
        -0.010387432089043988,
        0.03077522849436241,
        0.03130186189142972,
        0.016726956522609804,
        0.013816661913540876,
        -0.019295272999284515,
        -0.07272709900631841,
        0.03516984548395488,
        -0.045999472966975145,
        -0.011859521415389419,
        -0.04313690171762475,
        -4.2953019734805946e-05,
        0.0331947673368743,
        -0.013655579452435325
      ],
      [
        0.011681085348840473,
        -0.09404809785929769,
        -0.0306062369206393,
        0.06176740203267667,
        0.04998360275437922,
        -0.044403204914850905,
        -0.05930532311472651,
        -0.05503309965976801,
        -0.11407440295140135,
        0.06853776759912913,
        0.0019619090103910686,
        -0.11012512852607172,
        0.03798957685386478,
        -0.03471390624656126,
        0.037852977901306956,
        0.062968352449417,
        0.03493706161828018,
        0.04876345038297885,
        -0.09245538293730476,
        0.09932533906668724,
        0.0008990379414626395,
        0.04482679432363341,
        -0.051267568908180614,
        0.035541454963061395,
        0.014120571382509266,
        0.047863097522547325,
        -0.004267246354814646,
        -0.05728475549408508,
        0.00974640606227889,
        -0.040569801927352024,
        0.014352602203877508,
        0.0020285011928106024,
        -0.0039024678391592557,
        -0.08362134131226531,
        0.007931401528073262,
        0.11464632645790797,
        0.10333969276719378,
        -0.07864546259186726,
        0.02070266713099294,
        -0.08515448023935167,
        0.03552260025369804,
        -0.045234544170096605,
        0.06801681376747921,
        -0.05952650628723972,
        0.09425468938797323,
        -0.04249625586809438,
        0.0009787291906458186,
        0.03635805174922598,
        -0.04244855390353408,
        -0.02306496334810978,
        0.08749640034314296,
        0.02869672434187211,
        -0.036132682704193966,
        0.03247111260715998,
        -0.018294188923887265,
        0.04854349066590544,
        0.0032899008164213313,
        0.0018269675141160476,
        0.03781793780661096,
        -0.0964990869568126,
        0.04674137105306759,
        0.0008846873839040871,
        -0.023103953577832573,
        -0.05152149088849851,
        0.03811053796176724,
        0.051300785254663354,
        -0.0015570131753252262,
        0.014070392668717591,
        -0.024363983855884803,
        -0.004444906660033683,
        0.046330116398134835,
        0.005309099008502966,
        -0.04950548765846632,
        0.0013595051275862799,
        -0.062211758197484215,
        -0.005241063021412403,
        0.02356541956058583,
        -0.04868344365697933,
        0.04839283139932222,
        -0.025575292412881537,
        0.02600045673441215,
        0.008076694032333461,
        -0.0007111545042694116,
        0.053425025873994905,
        -0.012922345960095429,
        -0.08405241761551982,
        -0.12088573570811847,
        -0.10194956617214006,
        0.02503793817514641,
        -0.01683543879659899,
        0.0373625003223342,
        0.01453782139856612,
        -0.005441009743164252,
        -0.04533225560207288,
        -0.045280034939042195,
        -0.019647867276378773,
        0.03160421173159323,
        -0.015835380269513467,
        -0.005077997919567329,
        -0.01371213070885195,
        -0.0035685553185277265,
        -0.018060858519346797,
        -0.03650387390313511,
        -0.03298904229243034,
        -0.0578785031074201,
        0.07397907630121522,
        0.012018121881773208,
        -0.04002865583364909,
        -0.014805473701075302,
        0.037227012974306146,
        0.00905112457506094,
        -0.08926850117757147,
        -0.06239075390456904,
        -0.05362073114306581,
        0.02247640579903391,
        -0.04587103241894923,
        -0.01625698849267993,
        0.06848927559608145,
        -0.019230407059509354,
        0.014703014179835475,
        -0.03677628987252721,
        -0.07903960943290679,
        0.056477066692438134,
        0.05122954583010391,
        -0.010045463495845227,
        -0.014508268645989234,
        -0.05079660587448321,
        -0.06769789743390986
      ],
      [
        -0.004712469360262687,
        -0.042925832932790606,
        0.060208989989240694,
        0.09937917458106287,
        0.06513389232038398,
        -0.02539377875486555,
        0.07731014449188718,
        -0.07362277586523927,
        0.004472805932137416,
        0.02211078185751252,
        0.002630855185314376,
        0.08729719064732422,
        0.026172390717729994,
        0.012848683699394873,
        -0.0658976673326889,
        -0.006947113896760701,
        0.007183403436344644,
        -0.11782544683875212,
        -0.01824003393514676,
        0.10810726562818512,
        0.004755693341508348,
        0.020599372314238088,
        -0.012134810695789679,
        -0.031188497340670078,
        -0.06716503469919957,
        0.040118636432312935,
        -0.02858674486867398,
        -0.04578656867693317,
        -0.10627811480611234,
        0.01881720489085991,
        0.19213364349992515,
        -0.04351632041633348,
        0.13715434383704408,
        0.06914117146232354,
        -0.051114681701381115,
        0.003935008561476579,
        -0.020552062745897055,
        -0.048657115478994865,
        0.05957527728868565,
        -0.030619299463855415,
        0.00673209518440643,
        -0.014045674932999378,
        -0.0375347147668132,
        -0.11032850009881248,
        0.028839105521772646,
        -0.08042156796816079,
        0.03622878972105188,
        0.035767983609779355,
        -0.009725561614304016,
        -0.0689182554046134,
        0.09931639164279074,
        -0.049921186549810634,
        0.04387524843540597,
        0.0559128071965299,
        -0.019565467295199906,
        0.07810911370414124,
        0.032137120075628474,
        -0.014901190696196283,
        0.014038385197597512,
        -0.023753000107751956,
        0.036750628813174695,
        -0.023367783197062817,
        0.04821424119636766,
        0.134500255086263,
        0.094415958422442,
        -0.05098295235508834,
        0.046029937604296634,
        -0.024479567858266552,
        0.013375102884449297,
        0.07419173477434757,
        0.054385126890724195,
        0.06258345180448667,
        -0.028961849443767992,
        -0.012693359170227835,
        0.07497804178574541,
        0.004893615870948871,
        0.11554540073485753,
        -0.008318855916239732,
        0.027583292394450665,
        0.0443387572435829,
        0.016878684777744596,
        0.002486986160065063,
        -0.003455506047798504,
        0.000217791934036591,
        -0.03334137082173861,
        0.06901044683429056,
        -0.042971531602266515,
        -0.007412534553566738,
        -0.02992153092651437,
        0.012200235709573593,
        -0.0632471779076372,
        -0.10906433426044293,
        -0.1116199773650291,
        -0.030367655559057273,
        -0.033523591437836904,
        -0.004582210141166618,
        -0.013562717025203447,
        -0.010301650257356599,
        0.005981586594894076,
        0.04798885558023914,
        -0.0533251801943853,
        -0.0005062294668954721,
        0.0032662361299103985,
        -0.04436699148646699,
        -0.03622658327026968,
        -0.009244116797185184,
        0.00651124668023113,
        -0.03085805439785579,
        -0.005056231937434028,
        0.08050223613870257,
        0.029290469538261373,
        -0.0022472714398807307,
        0.1047211619598079,
        0.049080670067076615,
        0.06570053686472624,
        0.010190196414469464,
        0.031204798735672317,
        0.023753690340179944,
        -0.023119120877208042,
        -0.03814601423327912,
        0.07967761518266067,
        -0.06282800701804908,
        0.016654528536902462,
        -0.030098319196468184,
        -0.02945450342700133,
        -0.03076747110857735,
        -0.05258844577866331,
        0.013475245423392835
      ],
      [
        0.054502484231568255,
        -0.05534920790819349,
        0.054074671629372795,
        0.0022063696040051,
        -5.4998935980423725e-05,
        -0.09121506158659126,
        -0.0048542973685414235,
        -0.028885184008684287,
        -0.010947926693876299,
        -0.00123950461005917,
        -0.05842762788804367,
        -0.09113466648532073,
        -0.04036365901209688,
        0.04058867441381485,
        -0.011687121960404251,
        -0.0486670267638297,
        0.031257988662099195,
        0.09566249959718719,
        0.020595920719284996,
        0.01365461292586202,
        -0.05149225585496405,
        0.05423220125042949,
        -0.0876266698631408,
        -0.0267788412324902,
        0.05486501808179505,
        -0.062174435025713154,
        0.04283065862790027,
        -0.04075700259570298,
        -0.05567072847817022,
        0.07438845152626347,
        -0.01910099048056759,
        0.056732939466275535,
        0.04403239003615158,
        -0.07730642619649453,
        0.01574240793167468,
        0.031276731151679046,
        -0.018619085629821636,
        0.03408844477120512,
        0.03137350782125768,
        0.05470795761925313,
        -0.04709807986808315,
        -0.029550616297021794,
        -0.02521349383184255,
        -0.027349057884043976,
        0.008693418871022311,
        0.030894556188735912,
        0.0137027897708899,
        0.04358982277429834,
        -0.03814967418068922,
        0.09023943727221745,
        -0.0311054858343144,
        -0.011857779255033748,
        -0.0053666982620624755,
        -0.020162485793952592,
        0.027235264990177133,
        0.008645580786022615,
        0.06691738399485198,
        -0.0035808032251641204,
        0.023951694355348215,
        0.019649240588836984,
        -0.04809384247331214,
        -0.03545975119958638,
        0.04703391703269882,
        0.04710646039456063,
        -0.019170900111840836,
        0.10953005267302979,
        -0.07651446318159563,
        0.013311803383972195,
        0.06638668954765466,
        -0.04068918082641837,
        0.01858248337781225,
        -0.03295381422860545,
        0.020365994212287825,
        -0.062318524999672914,
        0.02510851842828116,
        0.0032146537711109265,
        0.048067927001903446,
        0.05722349701947765,
        0.009586943896355688,
        -0.03924537805223081,
        0.02579784302316822,
        -0.04504748603153491,
        -0.055271156039717356,
        0.021690947058833225,
        -0.022954442503877938,
        0.004852858095293068,
        0.011263222750818922,
        0.004950466877025358,
        -0.003117882013878757,
        0.010983084271479749,
        0.050286228918514184,
        0.06074989982453152,
        -0.04951305406707825,
        -0.014557230925109656,
        -0.07658422999921172,
        0.03121288250386366,
        0.03771141118288607,
        0.013912073747561602,
        -0.03614429795411572,
        -0.0423546452873966,
        -0.015001019768296589,
        0.10514849032931894,
        0.01159646624636059,
        -0.025930459719684516,
        -0.006293344365020167,
        0.10245698013863463,
        0.02311505439622361,
        -0.05042636756538329,
        0.02439168905198295,
        -0.022611804175193564,
        0.07492551032807032,
        -0.03955450291040339,
        -0.027428769431380538,
        -0.0944000135842236,
        -0.03430317149014239,
        -0.07207407840561794,
        0.012280345860077327,
        0.06424036363874226,
        0.06254075765546742,
        -0.04384024089990893,
        0.018068234448795288,
        -0.033263172999297964,
        0.012011995483172224,
        -0.014091875941630175,
        -0.08662663954842297,
        0.041359978053483105,
        0.05066562999495384,
        0.01338422662589831
      ],
      [
        -0.002360582720368643,
        -0.06481999674684674,
        0.0029565493288943095,
        -0.006192848385926506,
        0.04034192902968588,
        -0.019306473723563092,
        0.028701363474064365,
        -0.019082117328309653,
        0.00917975274931307,
        0.09968407692848602,
        0.03320333393992,
        0.051195449396077994,
        0.006910318161548746,
        0.007794191246527075,
        0.007127604222890569,
        -0.017299026079874803,
        0.06904319757348537,
        -0.0038557832041045325,
        -0.02049589455422913,
        0.020218130351059148,
        -0.05364753415376985,
        0.0217349886033781,
        0.06154970324642347,
        -0.14713747348124995,
        0.022513333637921566,
        -0.04727426392940938,
        -0.006234592685310776,
        -0.01995515295373909,
        0.054740057755265456,
        0.06821278171322791,
        0.004145306315316438,
        -0.004771351901158963,
        0.0538933273175838,
        0.07701195588385135,
        0.005717394872932698,
        -0.024713336762805266,
        -0.07738770124366559,
        0.03096206416028775,
        0.0041112228444786176,
        -0.0097411443619103,
        0.00400605226513973,
        0.03168629604745936,
        -0.0013495818648312573,
        -0.04855383013890778,
        -0.03716650761715384,
        0.04528837968463106,
        -0.015840963674169158,
        0.008911913199350587,
        -0.0010987906549607472,
        0.013886690897583402,
        -0.007424611438441025,
        -0.03230441782306674,
        0.005366419826262759,
        0.05636303131450189,
        0.09918360889207622,
        -0.08529923560207041,
        -0.006490927332887218,
        0.07082718910882847,
        -0.03908494007179264,
        0.02001280083165902,
        0.01939344912331952,
        0.06519784101083083,
        -0.049734131638205684,
        0.07736548296589596,
        -0.027034846761136714,
        0.009353517876981,
        -0.016309667536255186,
        -0.09821114620439562,
        0.07538591773800739,
        0.060661410486330475,
        0.07429177763505619,
        0.01454209920562645,
        -0.022881828337052282,
        0.14119368653349423,
        0.017028052212370873,
        0.050979550166141495,
        -0.02055697061719362,
        -0.06363720771210907,
        0.01278573880150327,
        -0.000636809861531142,
        0.035669745056572166,
        -0.0237870378775738,
        0.04108731899740381,
        -0.06506133986333501,
        -0.07090679889449748,
        -0.045717158331842644,
        0.019067092050197767,
        -0.013456762613722419,
        0.06628523570135367,
        0.04662069995306827,
        -0.021337279799261144,
        0.0008024212417641504,
        0.004757519982625681,
        0.07032619154128109,
        -0.07351240067743708,
        -0.11684523779209921,
        0.007325025205445053,
        -0.10184547245109049,
        0.009655466939096777,
        -0.012920877397300478,
        0.003580142193120905,
        0.07741449546336455,
        0.017803037304354803,
        -0.03698915220009925,
        0.11396886036707617,
        -0.006011490727422977,
        0.058482739089413587,
        0.010551804605966863,
        0.0070073352300696135,
        0.04616837448807435,
        0.029205011323037006,
        -0.02955039599796439,
        0.10059577826327422,
        0.027522864764550486,
        -0.019087032676368756,
        0.04661987827138336,
        -0.029697657843435876,
        0.0038798526263919115,
        -0.060264764831928254,
        0.058878272632163185,
        -0.07420647902345606,
        0.04420317945791135,
        0.038509404799800626,
        0.006357484879435459,
        0.013371322535219748,
        0.051048245272500015,
        -0.05696375587494173,
        -0.07656070580357384
      ],
      [
        -0.021998974939367325,
        -0.023420036765967614,
        -0.01577917050986456,
        -0.01640980332487236,
        0.023865264766802848,
        -0.031434638487155726,
        0.03794632566084766,
        0.10672725186896562,
        -0.01873442008340043,
        0.010505066174987176,
        0.058748300565843556,
        -0.16540877199493545,
        0.03424496284474126,
        0.006322221325447435,
        -0.07096840195954061,
        0.02909658615110453,
        0.03764506690305431,
        -0.017347521563779122,
        0.09206780098484735,
        -0.0013226555826628505,
        0.008530202990757695,
        0.02322790562730789,
        -0.0335514848986276,
        -0.013980319769657835,
        -0.06711650848686063,
        -0.0014693232906739706,
        0.17253688995551364,
        0.03853104557816895,
        -0.014304529766914079,
        0.06655086071324846,
        -0.1274045361553232,
        0.016464459453334714,
        -0.05399278526923353,
        0.024426458782307765,
        -0.02481714416731553,
        0.09509775145420685,
        -0.003649095815819084,
        -0.03572987814046925,
        -0.007598575272669045,
        -0.10351962990320425,
        -0.0379843275073133,
        -0.04435469521854078,
        -0.06569853798471734,
        0.046596120258208515,
        -0.0003539628093269234,
        0.03162305448153861,
        -0.0843876055682983,
        0.03508309343513285,
        0.008996648901276195,
        0.04661832361976737,
        0.05321621112954868,
        -0.021515610839624156,
        -0.031099964322088103,
        -0.04357044738805396,
        0.012098914032856647,
        -0.1177842222314384,
        0.0017084141735811914,
        0.04372952267441666,
        0.024180566441518194,
        -0.04435500374815311,
        0.001259693820738859,
        -0.05151417852793689,
        0.004539559633720207,
        0.05402026458506235,
        0.05692834320499592,
        0.03997424437282715,
        0.04623523265806196,
        -0.0013267715927723607,
        -0.06442163257403027,
        -0.08744036744173278,
        -0.002020015785275868,
        0.04459492438421618,
        -0.013433511490001306,
        0.04752610984324842,
        0.012746327988205478,
        -0.014742338343771219,
        -0.04272830314289349,
        -0.004342467444736483,
        -0.0394748723307692,
        -0.07406862080382737,
        0.022716608241981694,
        0.039670190375242595,
        -0.0077179612985478485,
        0.04432800274320537,
        0.009168879861783445,
        -0.06567746828394809,
        0.010277504098769222,
        0.0013080075519771276,
        0.09748078979342338,
        0.012383534688343117,
        -0.01697156138319947,
        -0.02632808835175065,
        0.07281997655266215,
        0.0037933083138227274,
        -0.07598525550161014,
        -0.021561955704999386,
        -0.01532092409081887,
        -0.0009288812316192761,
        -0.0775333607418062,
        0.0619256129128139,
        -0.1287912456799461,
        0.06961252609697288,
        0.014575242693414495,
        -0.03051006889766905,
        0.04690070723144561,
        -0.06704932536113024,
        -0.016704021011481975,
        0.041690367980511484,
        0.04348669753821347,
        -0.008538297157512392,
        -0.05266092040111772,
        -0.04867394185432115,
        0.02399126466780947,
        0.0016125667665030231,
        -0.045122642235550015,
        -0.01527836075176088,
        -0.03351935283217266,
        0.034246401138848914,
        0.014149978719420154,
        0.014563990072486429,
        0.01527899136744035,
        0.0051954356509663685,
        -0.012616752949009857,
        0.016441939792651128,
        -0.058105439142700596,
        0.0346433411368955,
        -0.10555316810296565,
        0.09061518147973453
      ],
      [
        0.11725020754736844,
        0.09125207699658462,
        0.003295448938070601,
        0.06759779956479108,
        0.013539512993775087,
        -0.044203537070873405,
        0.018434166174913405,
        0.023559801399936738,
        -0.08482420090321141,
        -0.023327287047104447,
        0.0034817952501556317,
        0.03737007670201477,
        0.029592788382093876,
        0.07645527462899382,
        0.015848117783076907,
        0.026051697676160637,
        -0.06572594777145113,
        0.01678962744599499,
        -0.06798567718004506,
        -0.002209780506863375,
        -0.02078115801336235,
        -0.00985250779068157,
        0.08954411619495169,
        0.0044272924743506605,
        -0.041570035242413934,
        -0.012498430169716301,
        -0.03599783367936463,
        0.0020928614798577613,
        -0.002055515566270955,
        -0.03715789302327798,
        0.005390403422951786,
        0.022662505134539282,
        0.015602784982035644,
        0.012010881526353448,
        0.12251645002171398,
        -0.013677278916268876,
        -0.01903439938201244,
        -0.04332843502858121,
        0.015599114121744466,
        -0.0185570318268432,
        0.09389918486363458,
        0.06552671712596711,
        -0.033452471633266014,
        -0.04632222909341192,
        -0.03434180776716097,
        0.02520948767461841,
        0.0338817834800204,
        -0.048246402466193335,
        -0.05474552773797039,
        -0.010198719284160941,
        0.06076564736751678,
        0.036474560216981394,
        0.003226638269330685,
        0.01924891886691104,
        0.04120919312996997,
        -0.0020861338071192182,
        -0.047358719990923136,
        0.05656726834863044,
        -0.00927599508901611,
        0.0487478442398931,
        0.05285422981732267,
        -0.016797653288502152,
        0.017030496709996405,
        -0.023279992285418143,
        -0.019406136527105558,
        -0.05263878803263904,
        -0.014094590388951752,
        -0.0576036586036056,
        0.010809724689520754,
        -0.044781819786239976,
        -0.006261431106542019,
        -0.036109162061425254,
        0.05750179542369572,
        -0.005827859302867311,
        0.0865148649339818,
        0.09748815529981002,
        0.06850713992605785,
        -0.008388448143672752,
        0.006444895721222528,
        0.11721263836577762,
        0.04938403548841459,
        -0.06983027010549078,
        0.02536025290367714,
        0.060121993440360746,
        -0.1020335504796754,
        0.03726179430112286,
        -0.05702401947735905,
        0.014061295157095156,
        0.04353485566332145,
        -0.07433523602977475,
        0.03730525265127606,
        -0.002061157749032776,
        -0.028611161061011775,
        -0.08424248830916797,
        -0.05141853269947583,
        -0.07353248176165202,
        -0.0829064620806195,
        -0.013862301273887658,
        -0.10225255354015683,
        -0.05181516889891004,
        0.0010570134070277092,
        0.10893558261109358,
        -0.009320457500051223,
        -0.006003712383693028,
        0.017975651502501026,
        0.029443923633657075,
        0.043844443917864497,
        0.04106716512144812,
        0.02304743293305581,
        -0.04942851161475212,
        0.07044120518944091,
        -0.09644890251256936,
        -0.0007621373954930182,
        -0.06900946475180285,
        -0.02605090051216852,
        -0.02503231458392055,
        -0.045942181735530156,
        0.10850570526632043,
        -0.044437851170858085,
        0.05963288725314365,
        0.09308211939829153,
        0.0046280141838729695,
        0.008822179450599916,
        -0.027507985105412656,
        0.05003812139638724,
        -0.045967861098205366,
        0.057787732954623736,
        -0.01841173039269289
      ],
      [
        -0.17469348836193554,
        0.017216834308726975,
        0.04781423094667676,
        0.1161398266624751,
        0.0571614647585736,
        0.02778537332856198,
        0.024402252198971974,
        0.00041257862361425765,
        -0.004469135139411,
        -0.00510613954313703,
        -0.0042443212835511675,
        0.036871693173913506,
        0.051267524434800815,
        -0.0017687471654725111,
        0.0054779859077718545,
        0.01672443655309442,
        0.051200464660915775,
        -0.01901930171068553,
        -0.011920303196442546,
        -0.07268598069547022,
        -0.09599210829431877,
        -0.06105837700366375,
        -0.05088814946494349,
        0.04012164963410071,
        -0.014611439503482383,
        0.08865292463765329,
        -0.016471404733192176,
        0.028620455753800327,
        0.047316201237092285,
        0.011898453629056645,
        -0.020858569597091255,
        0.04085148887233963,
        0.0016359243510283407,
        -0.04356463230829769,
        -0.036159468794393274,
        -0.0063732060900049846,
        -0.010810374558327243,
        0.002618312461053626,
        0.04976839568261473,
        0.08273732939585027,
        0.0006635753041072527,
        -0.05534286296742934,
        -0.049952287903607034,
        -0.039812717399593044,
        0.060303920914880606,
        -0.05968198052438043,
        0.141985768586829,
        0.0357623699296002,
        -0.006774391702148584,
        -0.05316649016385418,
        -0.1024767991804982,
        0.0010607321309557428,
        -0.07535965378608221,
        0.04674800179964264,
        0.03587571257465374,
        0.007169850080261069,
        -0.043534096194816976,
        -0.009854464187887109,
        -0.01617534156801729,
        -0.06277864625638578,
        -0.08335047910307719,
        0.062022211921012906,
        0.03321024089989317,
        -0.02771034667031489,
        -0.018289848563671583,
        -0.014587404305166038,
        -0.0021877716405863373,
        0.00926418337005793,
        -0.015007275177915409,
        0.04546290760505002,
        -0.054085631633683746,
        0.020440818905550155,
        -0.06158705027109818,
        -0.12486064648917784,
        -0.042518833310660906,
        -0.034368240942993046,
        -0.0023846767638087117,
        0.0047915956269571165,
        -0.04311822757833577,
        0.0325917009731727,
        0.08810329791408475,
        0.029650803754505094,
        0.05416877645189966,
        0.08455537148322405,
        0.06402977470217362,
        -0.08654097045079212,
        0.06647744876996181,
        -0.013638403818057247,
        -0.021319999727128704,
        -0.014285778269467923,
        0.01599714375478557,
        0.0015046417909765045,
        -0.033349605464447464,
        -0.007086278047925844,
        -0.0905220866832555,
        -0.08018433024526307,
        -0.025067244974934066,
        0.05463973196760266,
        0.05574868015570041,
        0.085796708052163,
        0.0023306251914555804,
        0.09784227506148238,
        0.008239343405233952,
        -0.03689726394880029,
        0.013396661615747088,
        0.03252040229893955,
        0.05294489747018108,
        0.004918494376782104,
        0.0457190530712565,
        0.002791465293280837,
        -0.01719214557086551,
        0.07303657686800462,
        -0.03248138532442592,
        0.058967254355772616,
        0.015313621398739399,
        0.008871578897412576,
        0.013303257765169595,
        -0.014969301340749903,
        -0.03067420676855757,
        -0.02196749139641125,
        0.039041991511641894,
        0.02640168337602374,
        -0.0332440422638772,
        -0.09172451933383832,
        0.0414477497626257,
        0.034667582727996006,
        -0.004995335133799768,
        -0.01403677419495422
      ],
      [
        0.016332468624112268,
        -0.04552535118864083,
        -0.048446079333154944,
        -0.03786933686682515,
        -0.008820319624956524,
        0.02026582519200158,
        0.024082185595255816,
        0.029449977029484396,
        0.0021627634748730045,
        0.052881275497156384,
        -0.058296957270637606,
        -0.056716505913962274,
        0.01721811245527432,
        0.03081853067738621,
        0.024313970798171197,
        -0.0022330644235690525,
        0.016064981929354228,
        0.06358445174226081,
        -0.008733511884809671,
        -0.03415885167236683,
        0.04058529826316487,
        -0.06551862794588106,
        -0.055779439804141025,
        -0.1287905502578427,
        0.059605224096661164,
        -0.08649026484936156,
        0.009668608399650978,
        0.07190175001000725,
        -0.07576054172441177,
        -0.10254381932318514,
        -0.15843670319164538,
        -0.038405269906383856,
        0.045500141131304746,
        -0.01139165442328599,
        0.04604059149803522,
        0.030076775481337026,
        -0.13105754964306124,
        -0.10673889117683427,
        0.06850675660538313,
        0.014969303292790994,
        0.014875597161659853,
        0.03998902881798291,
        -0.002729818984681203,
        -0.06365245658180144,
        -0.12866764514508813,
        -0.021684657070267833,
        -0.01575327298182085,
        -0.06399034788962907,
        0.060710677364585124,
        -0.05098602750033356,
        -0.03207818098266527,
        -0.04439642350751197,
        0.0014963883676425136,
        0.09486398055362871,
        0.010295721309710154,
        0.06559266610342097,
        0.018108341120343156,
        -0.0910452160420556,
        0.08553518472917562,
        0.05467719876349529,
        0.001726042055885898,
        -0.05206221826406034,
        0.004027538565680148,
        0.028508574250534584,
        -0.044383471491583074,
        -0.056469104000943494,
        0.010508159163345134,
        -0.032489010523004465,
        0.05542355399031307,
        -0.030617153292401098,
        0.0854033947000433,
        -0.009787014803607214,
        -0.10281149015046184,
        -0.01167256342006217,
        -0.04779515729084353,
        -0.04420038649395701,
        0.021336453198513957,
        0.03361963207205651,
        -0.021321652166887854,
        0.06655868861475049,
        -0.0020230212611235363,
        0.04740680502564256,
        -0.012581505409366504,
        0.039127557509329274,
        0.07803198038787808,
        0.026001277570815145,
        0.09467028677354278,
        -0.02186788007195283,
        -0.04881099099480938,
        -0.02812136242758099,
        -0.029415475914030872,
        -0.053907934289275115,
        -0.07234520521075402,
        0.03950904779718356,
        0.036285770152895844,
        -0.05882223865905731,
        0.005648817066913841,
        0.026806399267527557,
        -0.060394198166857815,
        0.02646113387252861,
        -0.029436293068076318,
        0.007487426249167128,
        -0.005942888986715944,
        -0.011465193912560859,
        -0.07373710285692037,
        0.039911149264080084,
        -0.014769703080818005,
        0.06534788476158412,
        0.04351057845490433,
        -0.003542538786545724,
        -0.04922575857936972,
        0.026278027727965662,
        -0.05607310189362881,
        -0.018653201445176234,
        0.022500543635167677,
        0.004140730457147837,
        -0.06025608687738325,
        -0.032223713814916455,
        0.025776311543957285,
        0.0013347567098423636,
        -0.10643329171728928,
        0.05854133721520464,
        -0.07196092067711198,
        -0.03975713000504288,
        -0.09013270505225981,
        0.025355044291790724,
        0.07507666295696408,
        0.03846893400702836
      ],
      [
        -0.0030199255303884156,
        0.08632852998777787,
        -0.05294247404630236,
        0.003987566665607096,
        -0.020198374412804622,
        0.01982242359594575,
        0.020627067294207612,
        -0.0663693558355427,
        -0.0002890894684647511,
        -0.08441787806136693,
        0.051701914598116676,
        0.0985606704958974,
        0.02788650471653742,
        -0.004640378362470448,
        0.027209510641255368,
        0.06319055543540537,
        -0.0013033706350108522,
        -0.09236544534012095,
        -0.06657625615993984,
        0.050956476944766974,
        -0.054743701059947164,
        0.034024479144965175,
        -0.061881539415054816,
        0.04379684555893929,
        0.06612636610807215,
        0.05785646799697316,
        -0.028345079942490234,
        -0.07002663396636828,
        -0.045045512944446434,
        -0.028321698831338508,
        0.018183863266089412,
        -0.03852557894440721,
        -0.050284998229199254,
        0.037041911572400846,
        0.07460886319077231,
        0.10703948263634494,
        0.008740836786299437,
        -0.08758117322217374,
        -0.08182044582321135,
        0.07984706047722166,
        0.01248655705066066,
        -0.002938192829325371,
        0.12112730853131204,
        0.006457159749954871,
        -0.015800413457444235,
        0.09178551302040994,
        -0.02943588181868251,
        0.020406063476963828,
        0.0027864385781332423,
        -0.003865546108699938,
        0.012323140463022497,
        -0.013147553498076227,
        0.024149048414436762,
        -0.012859069232640782,
        0.000522045281362756,
        0.010709094351829651,
        0.009366809837846185,
        -0.06781820075564425,
        0.03003172875074731,
        0.020439137772490446,
        -0.0625381283310983,
        -0.010945285529338392,
        -0.03962101933778028,
        0.10763430911751455,
        0.06181398816892801,
        -0.00011327867401934103,
        0.0032443963245719445,
        0.006319969510889029,
        0.01008808126657561,
        -0.09023868042467824,
        -0.06118444548871624,
        -0.02758849287622216,
        -0.01776159339867425,
        -0.005010061390733155,
        -0.1177585531171685,
        0.009953641507572622,
        -0.012619126902196375,
        -0.0971715253953851,
        -0.05959548404868681,
        0.05487929457552266,
        -0.08591960664112154,
        -0.026475536232611747,
        -0.03584136712714175,
        -0.01524962196779604,
        -0.09037020770679034,
        -0.038925897199408296,
        -0.05654186883770006,
        0.04434231465399958,
        0.03562139488269709,
        -0.0868209636499661,
        -0.06794394721981538,
        -0.1118773709209173,
        -0.005141725027740183,
        0.05494405039206745,
        0.05340622861941051,
        0.09083284130500231,
        0.0812619387970737,
        -0.07276746618210123,
        -0.031223724733194506,
        0.04699000241726801,
        0.048245622945639624,
        -0.03378979427607077,
        0.009781075791074623,
        0.013208721322450831,
        -0.013467680571911266,
        0.016108941668746095,
        -0.07303748061585452,
        0.009520160431854205,
        -0.016550662814053017,
        -0.002847165921696031,
        -0.05549764619270768,
        0.06399410921718818,
        -0.03526612443517168,
        0.03596704732602223,
        0.05833537064406689,
        -0.01854362656207079,
        -0.019708879478419643,
        0.07505532692226671,
        -0.015502214624117095,
        -0.034476082314315884,
        0.012942796279939635,
        0.006989248986348016,
        -0.04988087875749491,
        -0.002911695482866076,
        0.020441126159054537,
        -0.005123862207482732,
        -0.12122169550637374,
        0.0067206524107613855
      ],
      [
        0.025294683614324336,
        0.008449754610305194,
        -0.01603449558557365,
        -0.062100979463040135,
        -0.05902017131977269,
        0.0028078595606753592,
        -0.017169663711971244,
        0.06998297960682148,
        0.08129831824459567,
        -0.01048272934504122,
        -0.022865286217101436,
        -0.04918305237069978,
        0.029810954771182924,
        -0.040557620675502566,
        -0.02659706656032542,
        0.07398092581045881,
        0.05981428910173302,
        0.06340672262757234,
        0.043069344566029955,
        -0.05427305017314504,
        -0.017125184351093555,
        0.01938436220045584,
        0.002060910200494011,
        0.05015864841168979,
        -0.060861689241961885,
        0.06544252878270447,
        0.016393185088808635,
        -0.03594741180996235,
        -0.01808032262935166,
        -0.02694989640554263,
        0.03969666898496272,
        0.016779270637874606,
        -0.11406756950426893,
        -0.08267612934842657,
        -0.02143384585810875,
        0.13923863009646442,
        -0.040083049978239964,
        0.06886544952543884,
        0.038092077258132614,
        -0.022492157843397097,
        -0.007048793294843441,
        0.09619350034258194,
        -0.07581317851308995,
        -0.042587513923016525,
        0.012374302902775774,
        -0.06965549028755529,
        0.020719988219075707,
        -0.06468893797861215,
        0.010159430381853999,
        0.023439493149725966,
        0.03950416864909645,
        -0.06323704813266151,
        0.023074137609811474,
        -0.13205578525946152,
        -0.10704456743862215,
        0.024549038419894035,
        -0.06278558882092902,
        0.026511573979907277,
        -0.018629920968743916,
        0.020393400032438728,
        0.0021647109681889355,
        0.027830264617962706,
        -0.010889163586774128,
        -0.07465880963771121,
        0.08194832777315825,
        0.024586553393489412,
        -0.024092688845850255,
        0.0491292092944477,
        0.06020427449473714,
        -0.0673119491803757,
        -0.009907289489783443,
        -0.08620741386918561,
        0.013782987107059315,
        -0.0669566249143078,
        0.022035140813284806,
        -0.007336109666812016,
        -0.04947465182792786,
        0.010167975418848287,
        0.054096646658874405,
        -0.08779670624991855,
        -0.020183858811991053,
        -0.004079559408965481,
        0.05263082868326575,
        0.023520799207937898,
        0.008061648101538145,
        0.025803817832822123,
        0.004961916304009409,
        -0.01317367569488518,
        -0.014511553191585,
        0.028370586947057477,
        0.03724229073041254,
        -0.013249642458573853,
        0.000894525419217585,
        -0.056583850265691,
        0.028186249982913334,
        0.019980077532985252,
        -0.08148521463347301,
        0.02946017269592754,
        -0.054960407988260185,
        -0.054562533668478616,
        0.01924825707481081,
        -0.05228225082455817,
        -0.017909424319539652,
        0.036929696073399396,
        -0.06225180056811206,
        -0.04001701325619141,
        -0.02063607777809564,
        0.0012924466344892624,
        0.020110542739461577,
        -0.03967834473445519,
        -0.02063755414240805,
        0.0572333758434577,
        -0.00816072641858111,
        -0.06624628329796739,
        -0.036013933907217056,
        -0.055896767307979926,
        0.03611200261572892,
        -0.032881698732349335,
        -0.026773671494355195,
        0.03366378242043744,
        0.011344961669320504,
        0.04155102529875685,
        0.03440523332200506,
        0.020892064313455704,
        -0.025880120773504156,
        -0.05937393972980126,
        0.0023996565245529324,
        0.013787923492220824
      ],
      [
        0.03983053438674534,
        -0.04896155594985414,
        -0.08125873363878805,
        0.005919880205695515,
        0.11063624848459613,
        0.02064268664555662,
        -0.04059857369932705,
        0.04328634347662868,
        0.009981868696205256,
        -0.013812137180820137,
        0.04214829043898197,
        0.042448912232523985,
        0.011907301148486937,
        -0.036319829654143716,
        0.04143357274164801,
        0.02232479086515857,
        -0.03952619518946117,
        0.01684331923922992,
        -0.09714613467950294,
        0.0007439690432005535,
        0.11399114242204622,
        -0.06188845366953266,
        -0.0015543347682317116,
        -0.02039102728659489,
        -0.008491476460192528,
        0.09693759266724006,
        -0.020641797985390557,
        0.03025198868175519,
        0.04229424998339043,
        0.0007574309927075929,
        0.01698326837455817,
        -0.10461201251380893,
        0.012561505258363716,
        0.03181535747077464,
        0.0641742506921851,
        0.03183312671720722,
        0.052602398136891125,
        0.026353107675629806,
        -0.0326888985466628,
        -0.005451984771874377,
        0.10689537064828286,
        0.013179131645333386,
        -0.05791776389729286,
        0.0022355916931304028,
        -0.07917479716357953,
        -0.02718819349427407,
        0.00836485141554682,
        -0.08679701593017297,
        0.018684705052760816,
        0.00558707041010231,
        -0.04836302832420708,
        -0.07603742652373716,
        0.03732668219489397,
        0.054653771198824946,
        0.07145110068734835,
        0.07880141263358281,
        -0.08192217834234697,
        -0.049152692205864115,
        -0.014160195492842592,
        0.005403219712785835,
        -0.0009389336738826169,
        -0.03851961679971331,
        -0.1104168980007312,
        0.0028937320130900637,
        0.07539034289348545,
        0.011216832412975303,
        -0.04631960255585513,
        -0.06733592829031654,
        0.07668120867216537,
        0.020710804304599557,
        0.06670927349642446,
        0.044359169405831594,
        -0.06214051674694996,
        -0.0061153280485013424,
        -0.024695599294902816,
        -0.11048458029241585,
        0.002291634173737564,
        -0.018780158329830782,
        0.07501197258969794,
        -0.05728971658851743,
        0.07473500226620967,
        0.09823458145921674,
        -0.047392389776954556,
        -0.014898564566414035,
        0.045914264937311176,
        0.015015924820332998,
        0.03835522415709108,
        -0.02684307647501668,
        -0.03408796902678198,
        -0.018951525514738783,
        -0.05519831717854672,
        -0.0416077703989974,
        -0.05626406434531571,
        -0.07499266599238079,
        -0.040930828272210514,
        0.06396602259124204,
        -0.0435674557305223,
        -0.029730795516120116,
        0.05605311761287703,
        0.023782200266092464,
        -0.06484717088538039,
        0.0787476801477189,
        -0.03408060090315942,
        -0.04266615951575447,
        -0.03810064624233419,
        -0.00929740276292975,
        0.0412875318865057,
        0.1150796171096684,
        -0.030496063743038416,
        -0.018914428717328787,
        -0.0038863525134876964,
        -0.09483089427876756,
        0.05500594518163359,
        0.009635243498759617,
        0.06670538502771918,
        -0.009044367876182296,
        -0.012670468118595776,
        0.03071721495173525,
        0.04528661159147648,
        -0.02682597018149603,
        -0.02930161898500352,
        -0.020518442973255432,
        0.004418519988874766,
        0.09811617437582498,
        -0.045697081650363104,
        0.023664235957571788,
        0.014080185100506168,
        0.047678613703319724
      ],
      [
        0.04519124287070388,
        -0.0096640665551933,
        -0.06407369416794828,
        0.07935388697084393,
        0.05654508208782646,
        -0.024560019615319797,
        -0.03078677472634751,
        -0.022703776237935035,
        0.10138071225857194,
        0.06148649956620961,
        -0.03788334900141967,
        -0.06311553336820551,
        0.047315162991786265,
        0.01531140893560715,
        -0.04277809573199407,
        0.06613845430154436,
        -0.04073116618088043,
        0.031365680153059135,
        0.0031732511360769385,
        -0.05162653866193646,
        0.01761318378368206,
        -0.09822914452706204,
        0.004996960665409641,
        0.021281277468375295,
        0.11011602318741244,
        -0.006496706009342873,
        0.0627938968854145,
        0.02752322486809095,
        -0.02594334227944,
        0.016501524981711774,
        0.014191739262885888,
        0.01364227323770358,
        0.0013842909596017987,
        -0.047792750172043326,
        -0.06502754570048733,
        0.017096865251200622,
        -0.09881623848164099,
        -0.027513688524679943,
        -0.0005167902509533523,
        -0.026824742856590294,
        -0.06515691902228674,
        -0.050576317590405685,
        -0.06343389716693673,
        0.03425277542976228,
        0.003240921870799197,
        -0.09848395300334707,
        0.02386748860381669,
        -0.04729812273824344,
        0.06907134841000293,
        -0.008960247206825398,
        -0.06721405669192244,
        0.03196946662922455,
        0.014496414858610583,
        0.008525245804395131,
        -0.0665676584916044,
        -0.045100903131659494,
        -0.045233182439477757,
        -0.0075290714443964095,
        -0.056210359200078684,
        -0.03138451220011644,
        -0.004013800243219432,
        0.006769170605422363,
        -0.017044202899716376,
        0.043198598708770145,
        0.06272096897647289,
        0.008027862510610124,
        -0.10250312842664226,
        0.06069276992900728,
        0.0014955670758854758,
        0.026366577330099093,
        0.026346250483568312,
        -0.05591489679721052,
        -0.06447178313869993,
        0.00813672763199244,
        0.05953424855690655,
        -0.012188842458950822,
        -0.026819019609175945,
        -0.02329521835289008,
        0.0419217795304087,
        0.11255114166336086,
        0.04551288669740607,
        -0.00018535575040473095,
        -0.023584997887238404,
        -0.04962618559051539,
        0.046632973785825094,
        0.014435400545440874,
        0.0011457384900384353,
        -0.012154421437065294,
        -0.05040951884649242,
        -0.04341247066382991,
        -0.05997918805997033,
        0.057345989988640884,
        0.05793299480832482,
        -0.019100403778226038,
        -0.04621706407501627,
        0.020868462019740165,
        -0.003126779393207055,
        -0.028308993114724398,
        0.009090953270723123,
        -0.03407998358949473,
        0.06401197940419294,
        -0.04805257001115682,
        -0.07044462926892699,
        0.037548494324653826,
        -0.033325287791197505,
        -0.05695043303594496,
        0.07278229424890718,
        -0.06147922859784615,
        0.007872964180764913,
        0.005732739296948206,
        -0.005423145206374543,
        -0.0447342704350898,
        -0.07683782496521749,
        0.030130865780547734,
        -0.04053897265511714,
        0.00434025182128225,
        0.03222537258720524,
        0.01331018545791302,
        -0.03525113493340272,
        0.03821381223512192,
        -0.03798797289703725,
        -0.04887089429095059,
        -0.004414808890485328,
        -0.03363620119782898,
        -0.02479832894634378,
        -0.041973680180849335,
        0.00391799018146634,
        -0.0072492707140858455
      ],
      [
        0.01888811165215952,
        -0.010694299156006169,
        0.05974321784453693,
        -0.03525918587644699,
        -0.08142867771572293,
        0.00780882971370915,
        -0.035843637325820216,
        0.03650567143513106,
        0.014269537036370405,
        0.010435085708654172,
        0.048028104588206603,
        -0.013957410108752408,
        0.06386518225627541,
        -0.04951135118678738,
        0.027231273268909617,
        0.05990203810398066,
        -0.03879033834942946,
        0.028605583149306345,
        0.08699738772901768,
        -0.01664723454337043,
        0.01077952839739151,
        0.05680431308630654,
        0.007630297108872517,
        -0.1258138351867935,
        -0.020362020577756098,
        -0.031168322391325505,
        0.019101472832548518,
        -0.04451960772142847,
        0.053096611156387474,
        0.09134989335693078,
        0.10716936998769744,
        -0.017060670264643186,
        -0.09565038464377351,
        -0.047926036386352816,
        0.021336240108207304,
        0.003223077257044664,
        -0.04806756675778256,
        -0.02518514866115584,
        -0.039215254793422534,
        -0.0148921130719112,
        0.02492880057615741,
        -0.09181354832838103,
        0.06862827643727719,
        0.025202214301739845,
        0.025706283861486826,
        0.09290029578616554,
        -0.00483666974774961,
        0.04331554878324379,
        0.011326438123868625,
        0.043943716244958,
        -0.020487535388406978,
        -0.009655900000929366,
        -0.0070209569488628365,
        -0.08115861648536607,
        0.04393684960697213,
        -0.050789018253281346,
        -0.08682459967119809,
        -0.02526609764579741,
        -0.0088494328152484,
        0.03995771781543858,
        0.06521722143679522,
        -0.020811957405235514,
        -0.02227356361005715,
        -0.07220174839203237,
        0.05866710073979123,
        -0.012709395467144,
        0.00968399352554046,
        0.01793807584457858,
        -0.021643554497773554,
        0.01449815075399954,
        0.05348109518209032,
        0.02957545423980723,
        -0.007274566235091152,
        0.022252509397611794,
        0.08641621709882154,
        -0.020174030965999654,
        -0.009833742841125582,
        0.008404306886704111,
        -0.059458488079592114,
        0.09838625889668584,
        0.04203250166772797,
        0.06318405137118357,
        -0.03809144097947762,
        0.05466224570816206,
        -0.009729765583530326,
        0.042381124270241065,
        -0.006620250953647379,
        0.011909154100757666,
        0.04285972136747065,
        -0.026110452730423665,
        -0.057692691330116376,
        -0.04534078588895539,
        -0.004918612219020072,
        0.03375571238733468,
        0.042498949813723014,
        -0.06796615616573885,
        0.0022421391289672806,
        0.039529121916094576,
        -0.028113095400954195,
        -0.023672362947990456,
        0.026882468903679575,
        -0.0009322053886330539,
        -0.0995455580746748,
        0.03841770973180892,
        0.03889462863219943,
        0.04787988598366519,
        -0.027972309239273716,
        -0.04107646097426979,
        -0.014698896933928925,
        -0.004306949791412235,
        0.025841507693155887,
        -0.03182204351912928,
        0.043618143301536925,
        0.11871833341625071,
        0.02272016917568625,
        0.021296250678774994,
        0.043553200260562246,
        -0.01494719970559602,
        0.05753276649095667,
        0.014201296487278532,
        0.04155332058031368,
        -0.09396602879871928,
        0.06976580036684356,
        -0.049186787449310716,
        -0.013531088822070499,
        -0.02270056414961199,
        0.0057169523513000454,
        -0.021956017742383923
      ],
      [
        0.012472096683387881,
        0.03780086810290208,
        -0.07966859095671343,
        -0.01245713593147966,
        -0.024524088717171495,
        0.026018000556288886,
        0.015705242043769566,
        -0.0122345219364883,
        -0.074039220422887,
        -6.92331587988046e-06,
        0.05915502413003998,
        0.04000072960437381,
        0.0006391244737755909,
        0.012848477105906765,
        -0.008245887756391655,
        -0.08246470172879664,
        0.03740484671690182,
        -0.00034384048526830085,
        0.06556767160284606,
        0.0007010468119036641,
        0.05254200328659462,
        0.04199064680074543,
        0.028332836971198736,
        0.06999435338867864,
        -0.05903754972360474,
        -0.09055096204610319,
        -0.002114357640279516,
        -0.03425772313278861,
        -0.007766163625681122,
        0.03222313773836575,
        0.008201124853807256,
        0.015175300598668057,
        -0.04916511196152287,
        0.05475074608695851,
        0.02315114946638072,
        -0.01662877044344666,
        0.06632513454875201,
        -0.02720617803281519,
        -0.07964008708810023,
        -0.08735386639529916,
        0.01379760622984417,
        0.011199761099245633,
        0.03669253228175675,
        -0.14340614972005047,
        0.059657898227991016,
        -0.07159544717526957,
        -0.025393404927870605,
        -0.04508927520881009,
        -0.02827923684455252,
        0.01104553798027609,
        0.0758465820170653,
        0.024897235338120452,
        0.0023288372574507476,
        -0.10822051815635203,
        0.12378582918240534,
        0.01736239637215923,
        0.0513690231671007,
        -0.00037227602934505124,
        -0.019765129186461214,
        -0.005536548073204449,
        -0.0027691138988161323,
        0.032728603743632866,
        0.021668175017000732,
        -0.026898054737657506,
        -0.024854779035804783,
        -0.043012566312330074,
        0.019076784018455317,
        -0.008457204555147216,
        0.07092260242439362,
        -0.015595442834696277,
        0.06738766376180941,
        0.05202758414223886,
        0.01607709538678353,
        -0.03676222872381306,
        0.08201474055803064,
        -0.03446196077736403,
        0.006275863919648559,
        -0.013805840425870878,
        0.011865132133669031,
        0.011020852724027756,
        0.010295055145119412,
        0.0020278886588822997,
        -0.009779089058233272,
        0.054259745615164875,
        0.051464420740722584,
        0.02038847479232644,
        -0.018306270891553903,
        0.008897697122796462,
        -0.012582071791935085,
        -0.13964562403035166,
        0.0513332571363323,
        0.008354037877721576,
        0.060835719869159886,
        0.02797517770004426,
        0.033582746470383174,
        0.01616470007551858,
        0.045146030664614235,
        -0.09914246798097083,
        0.003017970895536631,
        0.01604377052401191,
        0.07633398550358392,
        0.004537037323608926,
        -0.01642868655754224,
        -0.06899444979166315,
        -0.03402606765537371,
        -0.028349416284270054,
        -0.09116835074652978,
        -0.04242428592199147,
        0.031189137443698292,
        -0.02675334319112653,
        -0.01932449555115478,
        0.02709639640231139,
        -0.011829151101080118,
        -0.11023863108923945,
        -0.020061974750064705,
        -0.027170433911681977,
        0.02589934794972199,
        0.04028442623781042,
        -0.03830743056285428,
        0.08145562252358582,
        0.09429249308688545,
        0.0006667688241805342,
        0.05676424364395616,
        -0.02703901745774861,
        -0.0632024514216372,
        0.04243850240843088,
        0.07412233700982072,
        -0.10274892928160846
      ],
      [
        0.054681680108076086,
        0.06334936816908805,
        0.009523123476749705,
        0.043451310684495,
        -0.0024863447146641513,
        -0.03045043171620759,
        0.006343432938995692,
        0.06400621552621014,
        -0.008027330215690411,
        -0.016673092423266873,
        0.038885848348739316,
        0.012459174728797111,
        -0.06556656023076782,
        -0.025486596447128772,
        -0.034439181487735164,
        0.15544722389652996,
        0.002967572759021583,
        -0.13300293804736818,
        0.07857515398339698,
        0.019032364947028247,
        -0.030313378633474938,
        0.014056466922269363,
        0.07416105777784905,
        -0.022852122671800666,
        -0.047575371269842064,
        -0.02257593053345175,
        -0.018071877607880545,
        0.015986301640413796,
        0.015337998457743075,
        0.023460713212058643,
        -0.0462522949857251,
        0.04051275329305454,
        0.008559969444913728,
        -0.007524064089715529,
        -0.01920768209502425,
        0.08181100251320067,
        0.024022811029200408,
        0.0057264290608304,
        0.060614060579065925,
        -0.04278260148435702,
        0.05175092469697449,
        0.055621724558352015,
        0.08655493735210855,
        -0.021613724658667042,
        0.062119411518050546,
        -0.029439235463352312,
        0.033051688200696136,
        0.014569729211458049,
        -0.1031690734723696,
        0.0017863078078758014,
        -0.01628333681432881,
        0.015665436544971517,
        -0.023379857831619697,
        0.014952310229425897,
        0.03244379181380632,
        0.03855348382529659,
        0.03314474213320768,
        -0.0768822388727317,
        -0.0036042166913006933,
        0.04295536370572798,
        -0.03622176112870126,
        0.0002924200236546249,
        0.052843524111228446,
        -0.017112269269439408,
        -0.008078250265848533,
        -0.07476892424931579,
        -0.02903253276997853,
        0.03696066805187635,
        -0.021447860270302408,
        -0.04865025687772957,
        0.04726856672209873,
        -0.04071676525730257,
        0.03502853207551938,
        -0.09504018511141678,
        0.03733800831535325,
        0.041599932989364354,
        -0.1058285143071587,
        -0.03289208008800618,
        0.11103191438977421,
        -0.024288352371682847,
        0.021706070053840096,
        -0.021052866247302352,
        -0.04050390510264974,
        0.029601075510179865,
        0.02095184320509083,
        0.10280763622200738,
        -0.11028843307640823,
        0.002188662127204015,
        -0.030186315774615953,
        0.004889916840113372,
        -0.002584530070665735,
        -0.02642615344174587,
        0.08992230347458412,
        0.007267389829275005,
        -0.02242846691215491,
        0.029942057287274112,
        -0.028984179122711444,
        -0.05982137246083557,
        -0.013747753937016733,
        -0.0039224691263117974,
        0.07527249842670264,
        -0.0722075039045262,
        -0.062468302156194935,
        -0.05337881251403303,
        -0.11350327440066177,
        -0.002181292898254609,
        0.14229836635223456,
        0.10262527750065942,
        0.06160991484293339,
        -0.03055148307681319,
        -0.0008774493085025751,
        -0.02196102819745761,
        0.015314886115267514,
        0.027961726185992908,
        -0.01712115070296982,
        -0.009884684978809271,
        0.023358393730472746,
        0.06470544135271693,
        -0.012535244691078798,
        -0.04804825561354489,
        0.02269549707443263,
        -0.03989494542650443,
        -0.030789212829149915,
        0.019249418213551313,
        0.005890094108628548,
        0.04143954015542974,
        -0.02202131801619671,
        -0.02869872511996559
      ],
      [
        0.06574133571859835,
        -0.0012527371473334613,
        -0.02663977673294872,
        0.023410924566755233,
        0.08292078182673643,
        -0.06529498040503455,
        0.02762362162498573,
        -0.09341434802120817,
        -0.00539515391646962,
        -0.007417640396099568,
        -0.018224866859685572,
        0.04016918618410253,
        0.030413223067491058,
        0.005897649218356177,
        -0.08958091644692227,
        0.0475337367427205,
        0.017876813087523317,
        -0.0001705671472437342,
        0.03331610071710681,
        -0.02973025080891338,
        0.030824926978511004,
        -0.022948561649461113,
        -0.010066322898934322,
        -0.05895403673165605,
        0.04464876892434517,
        -0.04058446041078784,
        0.054923860729112185,
        -0.08103131444994177,
        0.04795148384407683,
        -0.00963363006923748,
        -0.03545510085588695,
        0.000359812887071469,
        0.07260062768772445,
        -0.00017306896580678992,
        -0.006509082300436534,
        0.04430909957871758,
        0.04572514291161602,
        0.01210035811614337,
        -0.02694284494930553,
        -0.048671690778300226,
        -0.08434679005331255,
        0.028575622845777495,
        -0.03191045317083018,
        -0.007809115845954979,
        0.016660823152868032,
        -0.008492194767821315,
        -0.047883814214142305,
        0.016336858833166087,
        0.020986285408031484,
        0.0032539270187738533,
        -0.029801682047577525,
        -0.018800783996540303,
        -0.09067865397567283,
        0.017915715015162703,
        -0.016746018302922563,
        -0.0338624914196966,
        0.03434624395479601,
        -0.047105662895339497,
        0.02613136999966578,
        -0.03346370541561832,
        0.03768038046470043,
        -0.10922963825056951,
        0.010637797427608803,
        0.018271891936961066,
        -0.04876969879979528,
        -0.005078499842061934,
        -0.000995701091386292,
        0.05342912183841262,
        0.03420036304433215,
        0.017765490148664208,
        -0.01961870953797824,
        -0.030340228524840314,
        0.013428544757123925,
        -0.07328985706392503,
        -0.036255637285659836,
        0.0041681040311445745,
        0.09889510522965686,
        0.05266148599106111,
        -0.021002454201174286,
        -0.09342438844604677,
        0.026086309003217838,
        -0.07680029581081207,
        -0.02245187792968067,
        0.00022497780909165198,
        -0.03379587144544474,
        -0.02887697909497667,
        0.0866403251300602,
        -0.0063804993062325215,
        -0.036040578085450005,
        -0.05962117175395076,
        -0.08617639602414819,
        -0.02056837046826648,
        -0.029264395987748364,
        0.024810201652967215,
        0.08021547474854819,
        0.03868693286891661,
        -0.04901655384537561,
        0.07540785690211921,
        -0.008897453294365748,
        -0.028226485756378872,
        -0.042967920674508574,
        -0.05190563579615517,
        0.010290117783096929,
        0.017631259640377598,
        -0.017969261626860376,
        -0.026815099981375462,
        0.03629467674459862,
        0.02948106086343196,
        0.008087483458028774,
        -0.01202753982862757,
        -0.008313523606870932,
        -0.04523171192919266,
        -0.054779761028521334,
        -0.027884111319649248,
        -0.06808394512440659,
        -0.017999727578984385,
        0.023004610365360913,
        -0.06557961763400222,
        -0.1196928812787531,
        -0.021700369924089115,
