{
  "layer_sizes": [
    784,
    128,
    64,
    10
  ],
  "learning_rate": 0.001,
  "activation": "relu",
  "weights": [
    [
      [
        -0.024296620518225568,
        -0.06652238346240155,
        0.017894372504991932,
        0.10266893063432468,
        -0.007126009056720181,
        0.06497195603201347,
        -0.012015807348629995,
        0.010625034602549013,
        -0.015374167285810408,
        0.02320026231371574,
        -0.019687905904978247,
        0.09720489051404096,
        0.07638336865539154,
        0.011898209434063884,
        -0.08209617543845128,
        -0.05140707010076372,
        0.04438134669941912,
        -0.08685281039537375,
        0.018583487046079625,
        -0.07733299632236697,
        0.019286841548959398,
        -0.017615704745723763,
        -0.02051224545234316,
        -0.06400238925435688,
        0.03009336439263853,
        0.019746168743896265,
        -0.13402354367696898,
        -0.012510631179991781,
        -0.08518769194281071,
        -0.01958617402813057,
        0.0006560321162027153,
        0.017841558613495224,
        0.005073407295761809,
        0.007827024482185327,
        -0.03772548997606532,
        0.0516071269466647,
        -0.06860481258628848,
        -0.057052140654666676,
        0.054265244461625686,
        0.03312236523537865,
        0.03851045304950253,
        -0.048062195438906045,
        -0.020016498354556406,
        -0.03939774021413217,
        -0.046208390798664685,
        -0.04630326965835818,
        0.030295881881041122,
        0.012954577564629862,
        0.040661119435635294,
        0.061564024210292057,
        -0.04043398549370226,
        -0.0293198154763158,
        -0.01594947429350955,
        0.046687886617813805,
        -0.025219192320643246,
        0.03247504156210726,
        -0.11319219435010958,
        0.01570824708932126,
        -0.05870497424848771,
        -0.04117202129952055,
        0.028094708107063708,
        0.04160566419595786,
        -0.003622830672732521,
        0.059876717221807145,
        -0.017816901714252004,
        0.09404992410800285,
        0.12883428954911633,
        0.02636139819787352,
        0.016725866230735995,
        -0.0034462387757925664,
        -0.0029671825197422276,
        0.04317046669809282,
        -0.046957782374639725,
        0.0672949369716603,
        0.017040198272072465,
        -0.01740370484100806,
        -0.03983393218799736,
        -0.004413934323795994,
        -0.04002642041191943,
        0.019244617632935338,
        -0.0341299996870587,
        -0.026132261907551434,
        0.03265064168569549,
        -0.0513529143433579,
        0.007051856660004553,
        -0.08809025989027146,
        -0.02525983776827945,
        -0.027643775372770976,
        0.020737600755557924,
        -0.07464544100213068,
        0.08919862583092743,
        0.0220044916819913,
        0.09004868855018944,
        0.04518800502604511,
        -0.008594956191248981,
        -0.022690527877853358,
        -0.09446988257605884,
        -0.0003621638037400816,
        -0.040525855910696976,
        -0.07064173688921964,
        -0.027689324669455364,
        -0.10442180587232541,
        0.02691898407307022,
        0.07373345440792016,
        0.023664055702117597,
        0.06710348303974464,
        -0.1343136108246678,
        -0.02438800860468622,
        0.11983633478093317,
        0.021729963032012814,
        -0.0046392145660375675,
        -0.02520550721780549,
        0.07947041748828378,
        -0.009696976765492846,
        0.041463545134163504,
        -0.087241280910098,
        -0.0647885510537443,
        -0.041368069599994575,
        -0.0809839479289601,
        0.05408190842434703,
        -0.03283543595998783,
        0.04968285612152935,
        -0.0227984815928791,
        0.07616376564285103,
        0.013401379205876253,
        0.08528370182277392,
        -0.07848814660966855,
        0.003892354325906632
      ],
      [
        0.07428506288022148,
        0.05551284877575755,
        -0.03842964672544639,
        -0.0005837870211942608,
        -0.10754692202784111,
        0.016787931982747778,
        -0.01726789263384425,
        -0.0709474716943868,
        0.05774735444777181,
        -0.0011366115248913154,
        0.03610789886814026,
        -0.014306914587570609,
        0.008486156047031164,
        -0.03151496295169364,
        -0.01906214928037876,
        0.03937642292093508,
        -0.044106040465354546,
        0.040907446952767774,
        -0.05667171018595784,
        -0.0338607137469251,
        0.0013606731323701484,
        0.022537405271735506,
        -0.028772548619756033,
        0.031539275568057114,
        -0.045617153867969606,
        -0.060756467826438204,
        -0.030694999598591594,
        -0.04484295326138271,
        0.0026712042245199065,
        -0.00335796318892002,
        0.02071445338273541,
        0.08034030598245527,
        -0.030854566043713713,
        0.0028562094417957937,
        -0.08794055355948582,
        0.0740973821130868,
        -0.007877750725689695,
        0.045156515602409526,
        -0.05350235282974392,
        -0.030472088956616114,
        -0.03253143564397659,
        0.05798687147985262,
        0.011713994067890846,
        0.016742897307043127,
        -0.053436227553795734,
        0.012207016492016822,
        -0.032254916649774805,
        -0.01950026164764622,
        -0.03700995526160388,
        -0.0472079327480398,
        0.041501136020959215,
        0.0792518380698974,
        0.006788039536470587,
        0.031095983216064063,
        0.03854452379568514,
        -0.001964000548861961,
        -0.0023919130862847834,
        -0.021630459942498213,
        0.06881383387954851,
        -0.001868097686426459,
        -0.01861642776467503,
        -0.01498508903005901,
        0.07138262526850286,
        -0.02245926263988741,
        0.05434577764546421,
        -0.004239868527702419,
        0.0290455507663074,
        0.027664495798709332,
        0.021217110041399166,
        0.043071824496429975,
        0.03141540122859071,
        0.006968937273846536,
        -0.01995264860739706,
        -0.04877642243754947,
        0.09341417638231822,
        0.047386711946543605,
        -0.04037254132310626,
        -0.0872467672645361,
        -0.08550878803729788,
        0.0984396368043546,
        0.02299923371090587,
        -0.014626314264619581,
        -0.031024258871009906,
        -0.0050509919803229265,
        0.04208448803444033,
        0.03677561507315727,
        0.012612804279898882,
        -0.015077378930228324,
        -0.019949412046244758,
        -0.03392109509791623,
        -0.0037744254595066546,
        -0.050786914031575744,
        -0.05033283730183584,
        0.004792693342554498,
        -0.01898972025962356,
        0.07684061144121473,
        -2.1229188312820666e-05,
        -0.020009037926599513,
        0.1324444383153935,
        -0.005535865144912959,
        0.04605524949206289,
        0.028660739611711544,
        -0.024001809876195372,
        0.04243479768555494,
        -0.12107375822163316,
        0.02320174359252371,
        -0.05214939112511475,
        -0.08165217058878241,
        0.030787974455246205,
        -0.035439706935747155,
        0.006664230939276826,
        0.051326829243896456,
        0.001902951780750634,
        0.03526338932343255,
        0.013119392473316128,
        0.00020637701973539327,
        0.004544973183278435,
        -0.09765256088203265,
        -0.09803585679553956,
        -0.04034459728260272,
        -0.08106545037220902,
        -0.03811208042665981,
        0.045963499578119876,
        0.02988877112617625,
        -0.14851269553925572,
        0.0652757657727518,
        0.04365459541827119,
        -0.03721450787140268
      ],
      [
        0.10328382690032963,
        0.11132222724159963,
        0.019802273675528156,
        -0.04732115337704934,
        -0.02319964744036862,
        -0.007903029313067774,
        -0.02562739680104601,
        0.04520059999550561,
        0.10946594612374032,
        0.03546238084009429,
        0.03206861795335144,
        -0.027303331094210542,
        -0.03537809602970383,
        -0.038167593566874186,
        0.022309547016223074,
        0.10116098782176576,
        -0.02992185238447801,
        0.015034285312203462,
        -0.1037518731559223,
        0.0029558562698097698,
        -0.049986603504679185,
        -0.07413129525260012,
        0.002494951577446165,
        -0.0387172445628218,
        0.057151915655367376,
        0.014434705808375421,
        0.05589196348284081,
        0.06417471385675773,
        0.0004928108828493804,
        0.03340915774888537,
        -0.012141366221579046,
        0.038735938665143854,
        -0.019089321181302993,
        0.06193326348641347,
        0.03026440841669386,
        -0.06139852551501121,
        0.0020359845091540954,
        -0.12825117632128802,
        -0.04644296886097397,
        -0.0034300610890241876,
        0.04384524236458063,
        -0.012106663995455682,
        -0.02021372926204635,
        -0.08605437899909608,
        0.017620994407803722,
        -0.024695502536126512,
        0.011273961157807018,
        -0.034538656861181,
        -0.04968250162538754,
        -0.008311887760189715,
        -0.03397495080079175,
        -0.03475828630105404,
        -0.027587878818195487,
        0.056607726381763625,
        0.04424332011486448,
        0.06465967922367771,
        -0.008458827499355726,
        0.0020566223302552248,
        0.0016912235998284126,
        -0.07292202164949524,
        0.018169754406168057,
        0.03136230463274837,
        0.07675413348409736,
        0.01154037163792261,
        -0.03612082830774947,
        0.011239707787841396,
        0.03701637688106543,
        0.04536557380067943,
        -0.015982312630528215,
        -0.03377279583481324,
        -0.027798359755424648,
        0.035602402116431654,
        0.03419706651440282,
        0.08981357419670591,
        -0.016168590238181527,
        0.06635169967172834,
        0.0985609614156821,
        0.10769648662608562,
        -0.056023137038553134,
        -0.03792855822858526,
        -0.016431114503369412,
        -0.01902862922329763,
        0.057421099551896206,
        -0.07370465429712793,
        0.02898872541143393,
        -0.03651151674808258,
        0.0004574740815760756,
        -0.013676716975582473,
        -0.09883340784013524,
        0.015890962507664943,
        -0.031127472778589477,
        0.04892867865381568,
        0.002370162069931605,
        0.06976212748008814,
        -0.011817738091515378,
        0.0065872235968490326,
        0.018561404771692987,
        0.005844873124805791,
        0.04010579575012287,
        0.033433135395558373,
        -0.08815146027695192,
        -0.03570626015539344,
        -0.06679496451644693,
        0.009978644879831093,
        -0.046899885774120575,
        0.007600469663582408,
        0.03940061988071896,
        0.04151653043601328,
        -0.008730762395588237,
        -0.029584469375412623,
        0.023716661833751377,
        -0.0747185309037912,
        0.024226053896821163,
        -0.023831669877508063,
        0.07172268700058278,
        -0.04597926751118812,
        -0.05354637588096963,
        -0.029425587454192964,
        -0.10408614877803579,
        0.030323453589099846,
        -0.0524186246949403,
        -0.058262055400906176,
        0.08173335454214319,
        0.09329916786915309,
        0.036329968342327254,
        -0.030447410005084163,
        -0.008141395079143184,
        -0.08867212734535074
      ],
      [
        -0.06144500954020031,
        -0.03304615277698266,
        -0.14059494712315793,
        -0.01628706522277909,
        -0.03177968300697259,
        -0.053150926218774854,
        -0.05098956604269801,
        -0.04742310347557631,
        -0.006149906442870946,
        -0.03027782772012267,
        0.04009247595328721,
        0.05882772190618098,
        0.04405677463819628,
        -0.00043963611248695517,
        -0.004285937123518327,
        -0.016129173547191126,
        0.013449316730514757,
        0.08190393083406709,
        0.030712808126178118,
        -0.09185828872313573,
        0.07336680396827669,
        -0.012613318891331597,
        -0.040356985944370725,
        -0.017256772132233884,
        0.0775026504806459,
        -0.015526162780813466,
        0.028815681860432867,
        0.07670448158013413,
        0.07487381222017635,
        0.02356548464971588,
        -0.0053773756857716124,
        -0.06374903976937765,
        0.028537438773436594,
        0.004058200482389058,
        -0.021865181988759648,
        -0.03173064422344984,
        -0.0306764328510473,
        -0.05603937006330327,
        -0.07926905123518255,
        0.009519566387930601,
        0.08913285717348253,
        -0.0068248518042409185,
        -0.03588784465532468,
        0.08061855277876166,
        0.032718671719722925,
        -0.009482165108945758,
        0.13793394544253057,
        -0.009581179733294913,
        0.06839839852278112,
        0.019669986070583696,
        0.00965335499081395,
        0.026497916915189195,
        -0.07324968381041447,
        -0.07642115048721312,
        -0.03988710649856927,
        0.0443410544333197,
        0.09627317818829846,
        0.006837714270323294,
        -0.03133072490918704,
        0.05603836443552589,
        0.00615050102561514,
        -0.034166579480364084,
        -0.0012093263994198402,
        -0.04255695879854103,
        -0.028891392074506632,
        0.06436158085998296,
        0.021830441677534437,
        0.049291803840196095,
        0.09058264520985483,
        0.048551633474946315,
        -0.020277865715377943,
        -0.01113744249064925,
        0.018048892804358042,
        -0.09951485968654224,
        -0.08568026206228142,
        0.02167393913979058,
        -0.016874410969115943,
        0.03340064748578843,
        0.002715682340687051,
        0.04920480628114631,
        0.11625980935136325,
        0.04819468024253432,
        -0.06876363529805889,
        0.006857923074010288,
        -0.03420120447621652,
        -0.0016369671171780366,
        -0.013059803497507218,
        -0.06910319896856885,
        -0.07526666619547515,
        -0.04473252304046892,
        0.04066035725164316,
        -0.0386339776069551,
        -0.0046085584090192235,
        0.0005906759753389791,
        0.06825369220191452,
        -0.006214521332216293,
        0.02787562237346436,
        0.026410684615463666,
        -0.02951324410884949,
        -0.027203154431332727,
        -0.03884379088069098,
        0.07906223264842432,
        -0.06839858309492602,
        0.019573855325159643,
        0.03806021716397785,
        0.013690958686367263,
        0.001748390814257612,
        0.06307981943422719,
        0.07058008873609421,
        0.014122617552772098,
        -0.01250017911802543,
        -0.024354319379254013,
        0.02801570383566836,
        -0.007345555952095811,
        -0.02954156349682152,
        0.04720437577189103,
        0.009658948393610776,
        -0.05921666549317468,
        -0.03846670372019671,
        0.12874917757485113,
        -0.07408369460252347,
        0.008450064574724293,
        0.014452486633431074,
        -0.03925991927359118,
        -0.023206649288851366,
        -0.05615544530945932,
        0.05215434104870023,
        -0.0409735278706193
      ],
      [
        -0.013528504002725728,
        -0.006540130698091516,
        0.05277734062886134,
        -0.005965519622502364,
        0.003000428854767075,
        0.02729506490582618,
        0.01621134288734535,
        0.022616488534774482,
        -0.007662379121932235,
        -0.02976525895747756,
        0.032908781974637445,
        0.0497366973200735,
        0.04926870290140343,
        -0.037003062175522954,
        0.08542483789460295,
        0.02331840437021866,
        0.009335657800943973,
        0.013804071231425241,
        0.04188780763576877,
        0.0313026948742534,
        -0.002655059044979118,
        0.053201436235467324,
        -0.06770442376355099,
        -0.046149155787296045,
        0.04905562832131831,
        0.00310821564937627,
        0.0660674798654656,
        -0.030102373693647475,
        0.07891008186158997,
        0.07137340556377451,
        0.005655485045967358,
        -0.07140394385102737,
        -0.0698094847183495,
        0.02662335204197644,
        -0.06545775386903638,
        0.08005028893789139,
        0.029777075380013753,
        0.02161999194641617,
        0.04200170478729183,
        0.061127931086133014,
        0.030818622143545107,
        -0.008114533024262382,
        -0.012726005153888302,
        0.004237401994111362,
        -0.058718015427031686,
        0.07837440552451291,
        -0.0373456419025232,
        -0.0438275293181921,
        0.01125641758463163,
        0.03405605274752905,
        -0.01261845173819949,
        -0.008215171103011698,
        -0.03080907083491339,
        -0.014388810753219494,
        -0.009438455835151273,
        0.0032190901219870025,
        0.00043072547256951083,
        0.03597717188788862,
        -0.060221029892547545,
        0.012971028045962306,
        -0.07251344453042191,
        -0.0635509696155442,
        -0.041770167808720754,
        -0.0254901207792908,
        -0.037404004627613605,
        -0.0003127728756209523,
        -0.08577250381850741,
        -0.030121440120495804,
        0.06899321588484622,
        0.007715370024689856,
        -0.08147968008408726,
        -0.054188542250022745,
        -0.04115699829011584,
        0.07902708057606622,
        -0.08161165578821289,
        0.05263608877671116,
        0.06549389565914832,
        0.04964020402665388,
        -0.062333874108799994,
        -0.019879872084127656,
        0.031331654793754396,
        0.02154060905619229,
        0.07455496372648503,
        0.03885117079447038,
        0.04873874941041173,
        -0.13332959633315336,
        -0.011813025906989206,
        -0.07868789718038156,
        -0.036808706987255246,
        -0.06479149496423063,
        0.04621024621133209,
        0.05153998960223461,
        -0.029405352652141416,
        0.06776903011401018,
        -0.07999317861142886,
        0.030370936861056807,
        -0.05697766070747909,
        0.06849505823665505,
        -0.09302949401856354,
        -0.03285073164576376,
        -0.0002422167569496666,
        0.05164421513728021,
        0.005520967041365381,
        0.07606366089423972,
        0.05075233884128096,
        -0.08305430723300325,
        -0.01853584777770645,
        0.03699151809192879,
        0.017958747190193292,
        -0.05391589241344979,
        -0.08825426735803989,
        0.010955347437837255,
        0.030545288214961067,
        0.027692071413329702,
        0.02508281927891674,
        0.10560749459548534,
        0.017466439425755095,
        0.04190331726340617,
        0.02021001199419464,
        -0.00881217770942547,
        -0.00016077680034302496,
        -0.03247501497683575,
        -0.013567128330466416,
        0.05767597410689351,
        -0.08456460887563547,
        -0.023594906753412706,
        0.012485091545366799,
        -0.03468939212562735
      ],
      [
        -0.02273778889546244,
        -0.07100762127371966,
        -0.03592412893848856,
        -0.005479965286634867,
        -0.05391158452591796,
        -0.05952149384566181,
        -0.05006347021422094,
        -0.06755390648470389,
        -0.029735442883939624,
        -0.012187320387999325,
        0.06692897908565706,
        -0.031324447378199914,
        -0.033860617534925704,
        0.038325018847126795,
        -0.04457152303898554,
        0.08187029737211751,
        0.001830994286469445,
        0.09179562562748192,
        -0.03157360836592164,
        0.0020921393073435805,
        -0.03474917063142475,
        0.03946927143331129,
        -0.015595784777154923,
        0.014742122434485768,
        0.00898952666484728,
        -0.00580107460962358,
        0.05402612382298265,
        -0.04165770719358093,
        0.048687831814101176,
        0.11243016488264533,
        0.0551259186562068,
        0.009020700151574268,
        -0.07603842172984394,
        -0.0025572354132186097,
        0.03224825898687484,
        0.057184921281286764,
        0.05840310932523507,
        0.08979315946357251,
        -0.05880600799308593,
        -0.02530979395955429,
        -0.01878001741870549,
        -0.024075049854098363,
        0.043713916292324274,
        0.03854228661294671,
        -0.04490800377598766,
        0.10961680345558314,
        0.026873557805098328,
        -0.06323476902926087,
        -0.010831794022965299,
        0.08618635193983963,
        0.08192721574944907,
        0.030495234213496435,
        0.017885922128981848,
        -0.006564670088823896,
        0.050257660166496514,
        0.03778672122395535,
        -0.03137707669320704,
        0.04359388122315244,
        0.03168798739379428,
        -0.11224580098181663,
        -0.0686264996226115,
        -0.024303920062266345,
        -0.08670312485873283,
        -0.021423612486141008,
        0.02460297956666524,
        0.02613283384504727,
        -0.07249016382724571,
        -0.026808220812269766,
        -0.029229106763739878,
        -0.013794460930790902,
        0.05003405887655003,
        0.04224926683695718,
        -0.022291569467087213,
        -0.0014091108428352548,
        0.030681124132986345,
        0.06902144529839006,
        0.040696041665108186,
        -0.03487428511016811,
        0.021618032195504778,
        0.04142923030397408,
        0.014812959830399633,
        0.0026210399115753095,
        -0.002260171399731155,
        -0.010126130222382214,
        0.09249663456678389,
        -0.009445302188869385,
        -0.03188745896825086,
        0.012825604635776287,
        -0.05836100798273528,
        -0.01048160957515512,
        0.005628843218484722,
        -0.11475191980177304,
        -0.10453009411751248,
        -0.09735438972406311,
        -0.0016862721781800217,
        -0.033376606578941176,
        -0.04557919856729257,
        -0.005211614609049155,
        -0.012802209688457432,
        -0.08016913171354978,
        0.015835119249713953,
        -0.0027606807091600876,
        -0.0546101966292903,
        -0.10707122628363841,
        -0.1146556480440424,
        0.0877111346734525,
        0.035663200366379766,
        0.004597123637570844,
        0.09111936666428774,
        0.015438031647646608,
        -0.022449492354602706,
        -0.004633810696872933,
        -0.027316173841203675,
        0.09103168943721333,
        -0.038935731207930147,
        0.040524100911081835,
        -0.020049462004167313,
        0.058045793885463,
        -0.008584950918411929,
        -0.0017408914453101642,
        0.004093389436799882,
        0.03394841752521639,
        -0.022666383654713983,
        0.014869743419484908,
        0.030608009397887177,
        0.061082743514283985,
        0.019235008892903735,
        0.053487877172840335
      ],
      [
        -0.025767624725113826,
        0.06201321419382138,
        -0.04855881944494356,
        -0.03098000351917524,
        0.026582402458465496,
        0.08070039791629932,
        0.01539936531675192,
        0.00786590984535605,
        0.008455319424891505,
        0.039612921591477085,
        0.030874075923546854,
        -0.03478148881494044,
        -0.05215914333768225,
        0.030018213239018963,
        0.08708947603416564,
        -0.03194975473867789,
        -0.07989318973645047,
        -0.010692174433605362,
        -0.0783024495605574,
        0.010420995956958693,
        -0.09660914060521829,
        0.11180628355651435,
        -0.015103111728386423,
        0.01971957138439514,
        -0.010886901897684542,
        -0.02883363914509087,
        0.020452447486340997,
        0.030075595235978893,
        -0.09797815286127148,
        0.0011016234322486918,
        -0.02704991405988889,
        0.034350111038501226,
        -0.019966787036885793,
        0.03371033305078465,
        0.042036267854824595,
        0.0011411515549649993,
        -0.07913931756867959,
        -0.02659818051793337,
        -0.030707109187344945,
        -0.02101585218142984,
        -0.043307549486774344,
        -0.0694632839502846,
        0.006947683374319644,
        -0.005239606011363576,
        -0.0600615184299755,
        -0.023222384864643453,
        -0.08863440153212473,
        -0.07083707597194937,
        -0.013735487065396151,
        0.06469734338072934,
        0.03292805573088246,
        0.021238953457698807,
        0.0062081929342129435,
        -0.030485143631975357,
        0.08075195112798927,
        0.03146832142356673,
        -0.08400112904738878,
        0.05733509767455798,
        0.020623939286833988,
        -0.008113211363210032,
        -0.034733111923092114,
        0.024519933285715,
        -0.10461292412064263,
        0.02414779130036788,
        -0.048877668595663885,
        -0.02533177658437114,
        -0.011919877527690467,
        0.02705071783130228,
        0.018934064157324643,
        -0.0105836252930226,
        0.015814438262239036,
        -0.025567334396162107,
        0.02090602410692978,
        0.06762552234372049,
        -0.058369537346575046,
        -0.019360042884025385,
        -0.15292995740319332,
        -0.011485377203719938,
        0.03522373478303129,
        0.025376300958731984,
        0.07096771428406667,
        0.036394797477539216,
        -0.046190686339541945,
        0.020762591284088146,
        0.024558125329619786,
        0.02954593514474678,
        0.019027635260965882,
        -0.04908135194116112,
        -0.014556008678198066,
        0.08079363278267193,
        -0.060724927321540584,
        -0.023806625112685678,
        -0.02351187201875602,
        -0.05331974044589584,
        -0.014835310232525382,
        -0.020909731322865662,
        -0.002099429452206176,
        0.08937328272167641,
        -0.06415016105274374,
        0.008999659005388159,
        0.03228130876624018,
        0.02736952644004408,
        0.004288624827428632,
        -0.03588811783032299,
        -0.10016783388675027,
        -0.008462237906391229,
        -0.1175588234198179,
        0.03492904950266586,
        -0.018366682594249895,
        0.015996499688382623,
        -0.013800895189149518,
        -0.07475194084337843,
        0.02530818367305589,
        0.05889824768786541,
        -0.0406826994373291,
        0.02700513303706134,
        0.05356180276976751,
        0.04148485269055703,
        -0.008050631169899142,
        0.014309315247432482,
        -0.025375834669273564,
        0.07999155519653647,
        0.05894139006534428,
        0.008949344577954165,
        0.1465465274962239,
        0.07273806158031101,
        0.1089780233878767,
        0.06608285161445265
      ],
      [
        -0.022703905185598016,
        -0.08445799645671163,
        0.006850977741292937,
        -0.042469647506410836,
        -0.04986368549730604,
        0.10879898307773032,
        0.011614429574206386,
        0.021271212283807062,
        0.04823443931974437,
        -0.05520589999736579,
        0.13377229723266526,
        -0.022045437577781678,
        0.02824741773795261,
        -0.05815050277010526,
        0.05453622577736891,
        0.03497022087432759,
        0.07358947100156667,
        0.0131351006631368,
        0.13985279471816828,
        0.0007376826304391044,
        -0.0970874697673848,
        0.049386874568414334,
        0.037748095968539626,
        0.059384438696905,
        -0.006552289063166836,
        0.05891960522571109,
        -0.01680949705930867,
        -0.01629773503761556,
        -0.004700868728868424,
        -0.008042656124829371,
        0.07186737745791932,
        -0.05400523518044392,
        0.05276375131104943,
        -0.0050516638000773165,
        -0.013600459436638476,
        0.028429757746414746,
        0.06048567025946396,
        0.08094705214798223,
        -0.0956196732051375,
        -0.0747862509041099,
        -0.0663473419688401,
        0.10070233697022826,
        0.009830904778282301,
        0.050806024780773125,
        0.011079778024340098,
        -0.03798922579653045,
        -0.10167633444553525,
        -0.036318219923560456,
        -0.019379592642898187,
        0.038345022252201814,
        0.030484022016161093,
        0.0007088102519657781,
        0.06319670311784366,
        0.00269296697236277,
        -0.018428573386514407,
        -0.021260057331257364,
        0.0011579314077564558,
        0.029238599095581314,
        -0.014285616586437398,
        -0.007457869644746162,
        -0.005119479387539279,
        -0.03411283159071463,
        0.024026817388182686,
        -0.04997443529044918,
        0.0004135752982916823,
        0.08446231001684955,
        -0.02283685413320162,
        -0.05714376623538034,
        -0.005475414547408025,
        0.04197295374483716,
        -0.055078060527236516,
        0.0175281431813476,
        0.0427234878442682,
        -0.02153397970351263,
        -0.011612291023842525,
        -0.028820540216745072,
        0.015054460316627626,
        0.05224115413349404,
        -0.035102303899186386,
        -0.08620295069840778,
        -0.03909417615861659,
        -0.08862621959743022,
        0.022933025295240377,
        -0.04356934267451541,
        -0.08513866561956367,
        -0.051198932762649696,
        -0.01128074308008578,
        -0.05745476286961083,
        -0.03098013274850845,
        -0.02766909883482878,
        -0.03339693278329323,
        0.017040528719088,
        -0.003095828109360184,
        0.10079430378882794,
        -0.0748527884963954,
        0.0185028804732729,
        0.08835073926890381,
        -0.036583049969262635,
        0.04120591235521468,
        -0.03037255736926522,
        0.010131726056221766,
        -0.08361591418800127,
        -0.0020126038138770833,
        -0.03576150086516316,
        0.06152462149636547,
        -0.06520699893713228,
        -0.007006686709034533,
        -0.004390885256016855,
        -0.014520760059888123,
        0.06290140062066023,
        0.07560126200834799,
        -0.03895739244731755,
        0.035191614154053676,
        -0.09738608366340097,
        -1.630621036339916e-05,
        -0.0672742140821892,
        -0.027376420996894305,
        0.010920848076985802,
        0.029248283255082864,
        0.05261899013623902,
        -0.04348368930265523,
        0.13623910439606784,
        -0.1090351238060736,
        -0.009442343462384591,
        -0.005168309121616899,
        -0.06051288275711141,
        0.03997244668459036,
        -0.06670126768174028
      ],
      [
        -0.04695325633939967,
        -0.05043558042243009,
        -0.0028205973242335252,
        0.1608643510067697,
        0.04666520800603629,
        -0.014802829724505601,
        0.011022867345040144,
        0.025214561449400087,
        -0.1387468422464938,
        -0.0005350326009004988,
        -0.012272959039584306,
        0.04222690787199889,
        -0.022579088734383353,
        0.04881257724340459,
        0.052940679207387,
        -0.005735874614912674,
        0.05390870832623808,
        -0.027581876163069594,
        0.010595137628913983,
        0.0041038511589984155,
        -0.0745872152528624,
        0.02751267709009677,
        -0.03545759318482482,
        -0.008720277602435498,
        -0.02613349900084362,
        0.058380799532525215,
        -0.07517796007098067,
        0.032645426189940374,
        0.027758446205777346,
        -0.018603826394886426,
        0.0060581706420843855,
        0.04387152251959414,
        0.05635531357546923,
        -0.14252216733968387,
        -0.08950744044233186,
        0.04960841650120216,
        0.021441139212949874,
        0.03048396706699447,
        -0.010340856705785342,
        -0.053003404983842865,
        -0.11212320609178261,
        0.025777381203123416,
        -0.04975223175551514,
        0.05304616164596002,
        0.008730019070108104,
        -0.06194005346948612,
        0.08963346390701463,
        0.07142347590697619,
        0.031143939198343656,
        0.02568197302238018,
        -0.014194453816530886,
        -0.011837453116849292,
        -0.02395270964810526,
        -0.009479142839059068,
        -0.049656950710658565,
        0.030128137358748423,
        -0.0053805822869881234,
        -0.03423499899812053,
        0.00257153948679511,
        -0.057372633720466484,
        -0.05135271558395502,
        0.08271139432754135,
        -0.01018673543981065,
        0.002551839622897315,
        -0.006842298014344084,
        -0.01385834565678855,
        0.044848557375280935,
        0.028709553150847632,
        0.11007804037396643,
        0.05146114099762561,
        -0.014870882417128336,
        -0.025298473475580518,
        0.04281508532511336,
        0.08047596284639497,
        0.011266101483881682,
        0.02975228226531824,
        0.07665834056932705,
        0.09874105564706376,
        -0.04345103054328113,
        0.03824818980243019,
        -0.09236555949353066,
        0.03692813296764772,
        0.050094057878713585,
        -0.08689937326030824,
        -0.03139480905138302,
        0.07577712541129729,
        0.07988547853056303,
        -0.019735409131638404,
        -0.03252998098672959,
        0.07929425163276749,
        0.024013384984221373,
        0.06038714798355479,
        -0.013013302616440185,
        -0.009542866491344495,
        0.08379231258125502,
        0.05886251434927494,
        0.05070240896995985,
        -0.0038812103017869456,
        -0.07494070788818757,
        0.0030613622198824605,
        0.08681133491208867,
        0.07470093738418168,
        0.036592883692509834,
        -0.10979385079469671,
        0.025492966023102904,
        0.04256875159298581,
        -0.03612172045209906,
        0.000715545344936604,
        -0.13173544686996755,
        0.015884800108739196,
        0.06186550617636586,
        -0.007569796649909048,
        0.022022863983240784,
        0.04678998860467239,
        0.007726832542202092,
        -0.032977791792914386,
        0.05970049769041951,
        -0.034638269750330034,
        -0.05604963634728086,
        0.007045275572115166,
        0.07080473890137068,
        0.11615561692436174,
        -0.049565686583860735,
        0.03552794439685273,
        -0.027972734345647447,
        -0.058118512083289484,
        0.054030139217066384,
        0.06913237901854971
      ],
      [
        0.004201731660960726,
        -0.0017818797288126442,
        -0.07141713267575087,
        -0.018156543577894015,
        -0.06024545397809059,
        0.06337320562770034,
        0.02532649052242354,
        0.005326519655071495,
        0.007294262328816708,
        0.01145262185465231,
        -0.01143700470730923,
        0.13205415935054182,
        -0.006645914840101863,
        -0.04696481995218391,
        -0.04640550029105677,
        -0.07007783627534976,
        -0.11096369046719255,
        -0.005185632134489269,
        0.005314648106312805,
        0.002750644901710959,
        0.032996881604112335,
        -0.012097131232568501,
        -0.03995049988307752,
        -0.06355810983790072,
        -0.07387782374013867,
        -0.049543002746395844,
        -0.07778430465002631,
        -0.03327694136665422,
        -0.03992142598971424,
        0.10233794565902574,
        -0.004801700000986969,
        -0.020885711893617823,
        -0.042512229278308646,
        0.008388868615102187,
        0.05058025815692897,
        0.08196747159223376,
        -0.019104644933531655,
        -0.03449889191055346,
        0.0074604593654239845,
        0.11288648431068005,
        0.01175481947769001,
        -0.0588672819977892,
        -0.04440600465195162,
        0.021475839114804104,
        -0.021638152617721975,
        0.11177503693990212,
        -0.10745663530450643,
        0.012313217260189958,
        -0.12834962231089553,
        0.043564781565791945,
        0.05988115621818713,
        0.07534049069653045,
        -0.03716756951235251,
        -0.0030152533808402468,
        0.03658588301700613,
        0.06694964782974135,
        -0.09284500007824878,
        -0.032042120433238785,
        0.021813700822813607,
        0.030800397269611188,
        -0.00243591257111002,
        0.011935103408777762,
        -0.005845629814060427,
        0.05371682260850585,
        0.04625279684879287,
        -0.0028736363202611264,
        0.08037201726115006,
        -0.03779531827980777,
        0.09136489661251218,
        0.015726720815712067,
        0.03407120871130155,
        0.03924748696267284,
        0.01184876634999727,
        -0.08048398343145073,
        0.056789384507241907,
        0.12308198033533901,
        0.004255837713783168,
        -0.041511264171813944,
        -0.01271832791640195,
        0.02382314228381426,
        0.09514326112357069,
        0.03337312086142468,
        -0.1133605127169747,
        0.002650311073158193,
        -0.0618453356159974,
        -0.027777196159866662,
        0.08343060483266161,
        0.08820116204482428,
        0.0308094560893586,
        0.020079668635817775,
        -0.007371926389330055,
        0.07764081171518825,
        0.022475269079593234,
        0.028799128552255474,
        -0.014560169751641473,
        0.02849476696714557,
        0.05381495363415519,
        -0.003025653837444697,
        0.05371357328080533,
        0.014524078629029134,
        -0.06308008928741549,
        0.02759727735842635,
        0.01855350704037567,
        0.02653469470948534,
        0.042082053644252645,
        0.07017894904298874,
        -0.04272304959763916,
        -0.10711998060418673,
        0.07626302624552857,
        -0.01938828164180817,
        0.007650681062585344,
        0.027133225558254835,
        -0.020655902490992972,
        0.054424049195765996,
        -0.046580898549508316,
        0.023217468046877084,
        -0.0032558454056262637,
        -0.06667452972589968,
        0.03281757452669537,
        -0.022417721803317758,
        -0.035153153132051536,
        0.020473858049251677,
        0.0876279219232881,
        -0.026172835460476326,
        -0.04072616847016664,
        -0.12471997238992735,
        0.02240636507230361,
        0.1241946840897842
      ],
      [
        0.027533870297107386,
        0.005873864355286138,
        -0.028234822956398842,
        -0.043002692791432255,
        -0.029704328175922712,
        -0.025059749635950496,
        -0.02274884870768196,
        -0.03058727750586501,
        0.00279753962463993,
        -0.08704586191202623,
        0.013756106064855661,
        -0.028879775122568386,
        0.017227737853502262,
        0.034341698564520726,
        0.03795910899178874,
        -0.03111164438165747,
        -0.07266576315906947,
        0.08100855421574722,
        0.002011196630336537,
        0.012069033610823482,
        -0.0918047381961136,
        0.04466165049896556,
        -0.0628558604027025,
        -0.0016450078901549133,
        -0.016382009081190124,
        0.0547046206512614,
        -0.009199579051697,
        0.01666036809210161,
        0.021345398797348706,
        0.0619593435880231,
        -0.06838110705666023,
        0.11936302450929318,
        0.009337008153639552,
        0.04200237183578815,
        0.03000479572870217,
        0.09311422261364773,
        -0.0006799127431465675,
        0.0672051356882511,
        -0.060591533746896055,
        0.008409889505181397,
        0.018809880670530285,
        -0.06492600359848816,
        0.024856539288122776,
        -0.028740512916578594,
        -0.036717830604259136,
        -0.031939671554219756,
        0.011089081055577096,
        -0.05451302356455381,
        0.031167645077055436,
        -0.011095074344950924,
        -0.004584644862546163,
        -0.0070280244683148035,
        0.011243408218142181,
        -0.103891653234152,
        0.0021211255665791254,
        0.02897144433948,
        0.049409445391105526,
        0.06797885270745353,
        0.020089214691836627,
        -0.0014864483022220647,
        0.03595947554910474,
        -0.015268335935541142,
        0.011567570043155874,
        0.0667292035901601,
        -0.03590336523091288,
        -0.04968735141072101,
        0.04457238297513996,
        0.011666708228538714,
        -0.0008937484283459596,
        0.09650574826637968,
        -0.04812155898601796,
        -0.0846570022636994,
        0.016223575264138902,
        -0.09131405042241969,
        -0.0004680301068071718,
        -0.009199719724839015,
        -0.012064642761688628,
        -0.03636552649545386,
        0.011657265583883962,
        0.09508764766414059,
        -0.05418829962112903,
        0.024763763059107373,
        0.007237766855733915,
        -0.028517967844883516,
        0.05898808927302886,
        -0.05344615666438862,
        -0.14811092709083948,
        0.06247679693772564,
        0.03614685612984778,
        -0.019024200286511646,
        0.031403642921866155,
        -0.014768130888935565,
        -0.021580405223356382,
        0.024334776076574166,
        0.050613177538241697,
        -0.004579254316569824,
        0.0014403782339641024,
        -0.08886477220265901,
        -0.0019500033971108022,
        0.03618965024051008,
        -0.013039446432413343,
        -0.009562340956550338,
        0.04498285960723144,
        -0.025528869589588676,
        -0.0029663726333579643,
        0.011991155521214198,
        0.01348965151944995,
        0.06732343670287587,
        0.1040682440869363,
        0.04779082565893267,
        0.0585695259040621,
        -0.03113151093014367,
        -0.0293111459627511,
        -0.034015319312164886,
        -0.056656326800710595,
        -0.03026925144449701,
        -0.004460139191037079,
        0.07394468934875773,
        0.01971637147954457,
        -0.046498592055661626,
        -0.03340358971702698,
        -0.07252877936727403,
        0.05309225805416188,
        -0.053536076033222635,
        -0.03544345649318536,
        -0.06786453071091171,
        -0.0233709931791097,
        0.016802412307762384
      ],
      [
        -0.004440382589181121,
        0.09259856423274572,
        -0.0907433341597173,
        -0.052228447374550784,
        0.05884379935882655,
        -0.06501871033182574,
        0.06675685697838477,
        0.0584510552861076,
        0.05268893623976051,
        -0.04419981610928333,
        -0.03405994286698761,
        0.02518404340303864,
        -0.08338063753091214,
        0.0058332757165313835,
        0.06337784155153321,
        0.09726710353469581,
        -0.034662624648438785,
        -0.009284388567075745,
        0.04120077170520501,
        -0.057571264246664124,
        0.016452172366231803,
        0.05713922393042223,
        0.045527335648678245,
        0.010812967940350124,
        0.0784219928341948,
        -0.07379885269803761,
        0.020981618649241304,
        0.019623109747990673,
        -0.042513963482578264,
        -0.019751599260092786,
        0.00615656112200278,
        -0.0307186813666088,
        -0.012443563661686143,
        -0.02177413853265513,
        0.08929868607458294,
        -0.013481593239278807,
        -0.05306772728170663,
        -0.019592462723343057,
        -0.04312237270039505,
        -0.04674730653231844,
        -0.023389398923857135,
        -0.047436264583813094,
        0.04103753729250215,
        0.06984443905062247,
        0.0835531414121,
        0.040754261136835744,
        0.0007141056615241907,
        0.08961337652619127,
        -0.0413340292009807,
        -0.021744866820890052,
        -0.032907799252529055,
        -0.010931348818595336,
        -0.004647405162247003,
        0.013075604154236507,
        -0.03833189740167977,
        -0.042692912725966384,
        0.03828521118359589,
        0.04458356683529053,
        0.013419287962056964,
        0.08741170063065754,
        0.04743162204621046,
        0.09579794685453118,
        0.0034899318862524273,
        0.021461958889255776,
        0.146282285407349,
        -0.09667958769067272,
        0.013441456371124776,
        -0.011400246332040518,
        0.07129832639602637,
        0.025218479418652483,
        0.029930545415948438,
        0.0066640945741024745,
        0.04431381852479437,
        0.024253070737652645,
        -0.07916049346262267,
        0.09228351105602983,
        0.05725825514812556,
        0.06389011278409008,
        -0.011374480128995208,
        0.04905906376332917,
        -0.008429810563452224,
        -0.07610955787480272,
        -0.1057642121653517,
        -0.10136372260359788,
        -0.016956875741630826,
        -0.07844819302245178,
        0.020580475183465875,
        -0.058984733610669596,
        -0.09031609676027931,
        0.022638876650055484,
        0.065806837221094,
        0.0037455194054356925,
        0.0017597111267394995,
        0.03831709465931744,
        0.03068146001479252,
        0.028889841263734974,
        -0.052588413131350084,
        -0.03906688082704723,
        0.020990724896624714,
        0.07405417372053477,
        -0.01011684694770829,
        -0.028934821325701684,
        0.05386008648563123,
        -0.02948965468985657,
        -0.047172870201708995,
        -0.02919033864958642,
        -0.06293498717934073,
        0.1125640365769668,
        -0.09351303455160796,
        0.02633740635886826,
        -0.04003029003611566,
        -0.022287653481691264,
        -0.0895034280167425,
        -0.07412685375980832,
        -0.061199098184701296,
        0.0077979930328392405,
        0.011124401302978438,
        0.003544279776040235,
        -0.0813304222605264,
        0.033796222502492625,
        0.06801604889664105,
        -0.022499593367869546,
        -0.040330400339854175,
        -0.10425183866369678,
        -0.02586369650300616,
        0.07446512151676063,
        -0.0038946008494928704,
        -0.002864028316110661
      ],
      [
        0.05679329744197981,
        -0.020035466476584187,
        0.08452438251562401,
        0.061881927424164464,
        0.0054339908640308136,
        -0.0007028885979643289,
        -0.045770730674075555,
        -0.023323163881410508,
        0.05621069922121796,
        -0.07204982195082073,
        -0.05637130002889951,
        0.010048011665219365,
        0.07286725218713598,
        0.047335634820545765,
        0.09843357619767763,
        0.026517410531295343,
        0.03970389614265693,
        0.02475233491072217,
        -0.00028042186860175155,
        0.0008755239147372905,
        -0.043418370265513456,
        -0.0418474697279025,
        -0.09368413802479716,
        -0.03621781690013946,
        0.06504907077457428,
        -0.008649314278099165,
        0.07388239175197488,
        0.04068245812224081,
        0.007445235919821541,
        -0.032743263265246805,
        0.048447588040249255,
        0.03135781722079902,
        0.035205459060326266,
        0.04317795007296233,
        0.03373985727039438,
        -0.047578050216821405,
        0.05264188232174893,
        0.016488132020436416,
        0.041619207396702225,
        -0.023867235524500898,
        0.11831960235941054,
        -0.0093912462617944,
        0.05043777541801289,
        -0.036944099212198635,
        -0.0778959890513285,
        0.0050629518395053355,
        -0.009022477259090519,
        0.039240325693427766,
        0.13922224592111268,
        -0.008968659913426007,
        0.03235306044621614,
        -0.0028278345352674584,
        -0.000912419946641054,
        0.003208551835198796,
        0.057104150401330475,
        0.027216579002294697,
        0.08786481361181177,
        -0.02438755598985314,
        0.1686652682655803,
        -0.03405648403355718,
        0.06956368436179519,
        -0.05752653466348912,
        0.0035225664041296555,
        -0.04989666003884423,
        -0.00771271935342506,
        0.020978785694330995,
        0.07719397563873734,
        0.11124767398974124,
        -0.004296286032138945,
        -0.058241484507696936,
        0.042962130285539475,
        -0.00934857706542649,
        0.08341577104233724,
        0.0005208162812409816,
        -0.06051955837479532,
        -0.005631661308727776,
        -0.0475346862776145,
        0.033340371931200555,
        0.04265415793752995,
        0.06009714179150344,
        -0.013827697345018992,
        0.05166160910136702,
        0.09667153096206738,
        0.06893474603936597,
        -0.11099938883865437,
        -0.024789324846843982,
        -0.005470543037258125,
        0.031717251068659864,
        -0.016138068449218876,
        -0.08692988955643502,
        0.03232125008324331,
        -0.006912462843483233,
        -0.06818574834679686,
        -0.0062297002712230634,
        -0.059192420081985865,
        0.07358361789564119,
        -0.13508082601970595,
        -0.0504339962788663,
        -0.03659797934008142,
        -0.050053416746157695,
        0.11059478360195195,
        -0.039904726779209226,
        0.02337224962754527,
        -0.08003020652634969,
        -0.0007010438574701942,
        -0.06259756635111105,
        0.05212689548014751,
        0.10185468389469915,
        0.01355243586860585,
        0.04875274021681149,
        -0.011784901805959572,
        -0.0020575223222010137,
        -0.01550439902942736,
        0.038120989041705355,
        -0.01562326678180133,
        0.0007963894257509587,
        0.03727697430837037,
        0.04958000391216533,
        0.028480367908496,
        -0.008790614016580543,
        0.025739659769465323,
        0.0661200151919375,
        0.08616619140190494,
        -0.08128311620053962,
        0.02445865696704802,
        0.10930023090420543,
        -0.07063964524821734,
        0.008773003857430036
      ],
      [
        0.035299977984253564,
        0.09692270288069554,
        0.019142131783518184,
        -0.022200243589833447,
        -0.0038197394129095346,
        -0.008044885119830907,
        -0.015126527099382734,
        -0.07297461115688396,
        0.1629884653815816,
        -0.09690321835159328,
        -0.06859006653432845,
        0.023460637075194943,
        0.0675896253705204,
        -0.04321159060681329,
        0.05257761146275767,
        0.05049746625150399,
        -0.041678347249710083,
        -0.042033719797870094,
        -0.015297199149925894,
        0.055692174784241856,
        -0.06121644326510583,
        -0.031077202616886433,
        0.029103384292104684,
        -0.05498180684372598,
        0.02918291540245154,
        0.02840589943838137,
        0.00933482342430403,
        -0.09511530232738019,
        -0.061171300953486454,
        0.048746345834272085,
        -0.010037520168726818,
        -0.02165352070068902,
        -0.04530604326949392,
        0.0566424405566499,
        0.02632701742601619,
        0.003516542609895944,
        -0.03474099575317876,
        -0.07967170594437799,
        -0.03887971566888993,
        0.022095674642548344,
        0.04110327060511744,
        -0.01148019222607953,
        -0.07042971301792453,
        0.03654662828562316,
        -0.010692967395099529,
        0.034607597078550344,
        -0.04445887428640082,
        -0.04173021504599617,
        -0.028340047027654636,
        -0.03844869028708938,
        -0.014813452082932894,
        -0.02779353856832834,
        -0.03456616412742951,
        0.07504353016447006,
        -0.03872739404579631,
        -0.025172912238349405,
        0.03520124198334412,
        2.894989052099335e-05,
        0.01911595970111398,
        -0.031372275705910425,
        -0.017507263858687262,
        0.026281446152953532,
        0.10357278958958474,
        -0.08273277518164208,
        -0.015026973764563988,
        0.08346998006467739,
        0.0003140711024178465,
        0.11102084979716996,
        0.04354384613185792,
        -0.08798567166801546,
        0.04258330373779108,
        -0.09691168389034868,
        0.02712318865618425,
        -0.11906430221325137,
        -0.042490792932808254,
        -0.00032804781142728353,
        0.0731955858770784,
        0.06110164049422983,
        -0.08818610340968022,
        0.03963620019261297,
        0.048246338863741224,
        -0.07513986591410995,
        -0.016143926501884044,
        -0.04176420067484482,
        -0.01946240713589122,
        0.09776426695352199,
        0.015478271648123265,
        0.04965339747883084,
        -0.014198593941603062,
        -0.041274826150079685,
        0.0008177300992568942,
        -0.058175948059608754,
        -0.08309364139954922,
        0.041440651684964976,
        -0.06023214274531948,
        -0.004650766640309116,
        -0.03271272856599027,
        0.0353839122309176,
        0.0981366387490006,
        0.033704250621395704,
        -0.03404233381420771,
        -0.057843217903541334,
        0.11059485649193883,
        0.032576968452635365,
        0.01924956635333104,
        0.039492256753683785,
        0.022665279388459657,
        -0.07999041313551043,
        -0.011669476704096451,
        0.03578033912668068,
        -0.02105751046676651,
        0.04962348155981157,
        -0.06127121396678578,
        -0.019472580854365176,
        0.06693926036101489,
        -0.050211213909891785,
        0.09583285575769555,
        -0.03594817782907656,
        0.004803276251331437,
        -0.009346196548889818,
        0.05070867834003998,
        -0.0020453006500252002,
        0.06472856543141477,
        0.012961862290668515,
        0.011087921152477646,
        -0.02233533034136783,
        -0.04979989769668429,
        0.006626360600775976
      ],
      [
        0.05230654546693704,
        -0.0027607571689562513,
        0.03432729254972086,
        0.016029342453450893,
        0.06360786632201021,
        0.04988935371578509,
        0.034452665024503754,
        -0.0468867701270934,
        -0.05861435154991593,
        0.09574217582402182,
        -0.12056512385154988,
        0.04349150250876201,
        0.007416195843850205,
        -0.026213828114586044,
        -0.042505668506240844,
        0.003809295801327509,
        0.07004403500696307,
        0.02090240379088538,
        -0.0018420961443794792,
        0.011665349062972074,
        -0.020233441949865007,
        -0.028518385591262102,
        0.001388668043091689,
        -0.042143649019966166,
        -0.005713586123125403,
        -0.04994577031669529,
        -0.020817856562131493,
        0.016501226365682697,
        -0.01862667721044537,
        0.030259843630585214,
        0.032769759171231025,
        -0.0026809986334172054,
        0.02707368711348007,
        0.08653185356500853,
        -0.05174230919509082,
        0.014704819657736668,
        0.003184205592220032,
        -0.010957643201775424,
        0.05013317937315742,
        -0.0036594030561529853,
        -0.01606583490138513,
        -0.016371053025211274,
        0.13333085211119564,
        0.044898028735236815,
        0.06565895610927017,
        0.011667314623737761,
        0.02937317188478858,
        -0.041109207088444226,
        -0.025214453963818977,
        -0.03459636203300261,
        0.07692408866955516,
        0.023958804614170062,
        0.044653490240098556,
        -0.03037847245021415,
        0.008832290549101235,
        0.005394350383207964,
        0.020147240009384063,
        -0.047994379866058354,
        -0.02423136243889691,
        -0.050346545442846106,
        0.02921799032194159,
        -0.011160521725024216,
        -0.0061302282946651306,
        -0.12092348972612209,
        -0.08768133839809028,
        -0.035793694609216775,
        0.003934625027878901,
        -0.04523646342827526,
        0.02752043389486952,
        -0.1096494289834569,
        -0.0583779838512665,
        0.12052251366577098,
        0.004616049108716994,
        -0.048064869356903364,
        -0.08184042470032937,
        -0.04676352585610145,
        0.04946531042710632,
        -0.03902288453486373,
        -0.01590212795617088,
        -0.03600447414663587,
        -0.017647063060051725,
        0.06344878991208767,
        -0.0043693874989887554,
        0.07235565337219557,
        0.008486589293990663,
        -0.11922483599155936,
        -0.06521597292018458,
        0.03790216236054776,
        -0.010770139874944306,
        -0.053963114733999056,
        0.041831904199345515,
        -0.015030708874386902,
        -0.009764341760138805,
        -0.05780417307532206,
        -0.013555092699241055,
        0.014857687577267027,
        -0.026396843371822014,
        0.08284682246995281,
        -0.028468743120006624,
        -0.06768772637217361,
        0.02085537160585382,
        0.03694064331258532,
        0.09296350424790992,
        -0.042345296404586764,
        0.012353268581382422,
        -0.08025422549410441,
        -0.013511378430613369,
        0.038462012054207025,
        0.02295403028534225,
        -0.0005698599934742483,
        0.1383730167307934,
        0.01645964326876917,
        -0.06418361943482695,
        0.05658856495228465,
        0.07594261023532306,
        0.009025260044787282,
        0.006218676844310872,
        -0.03955534945388607,
        -0.07821449635077975,
        0.07552498489403495,
        0.034964526058628626,
        0.038541013641367965,
        0.02773179607303609,
        -0.08610201756019606,
        -0.055055261918117784,
        -0.06588118217316835,
        0.0035431613170188703,
        0.005282092689104065
      ],
      [
        0.024954859748815228,
        -0.004903460497540273,
        -0.013125976359123374,
        0.013535678356796567,
        0.026628511651753534,
        0.03224910942482912,
        0.08196260637964435,
        -0.055916389134729017,
        -0.042869393701116705,
        -0.10239601649329085,
        0.025042476785154016,
        0.014646217171665431,
        0.010929957089019615,
        0.048247132854270444,
        0.10254671828172053,
        -0.03727906503973335,
        0.0594557248786814,
        0.020529289515767133,
        0.0338663434764181,
        0.02703055101065806,
        -0.03016352050840231,
        -0.004924766921232738,
        0.048302923129003,
        -0.04547287222813265,
        0.04809172000063259,
        -0.07538891370213668,
        0.0011704062590131604,
        -0.09370344265375363,
        0.005038089911208115,
        0.032788951428822516,
        0.0417757684636641,
        -0.028001514435900945,
        -0.07673976436982013,
        0.08128186604647913,
        0.057168342845937595,
        0.11048129786688993,
        -0.036695123082858806,
        0.035219348126044596,
        0.024488279672092744,
        -0.10622802494744703,
        -0.08435355509780983,
        0.12357277766080162,
        -0.02229618992723185,
        0.0024394928473738947,
        -0.0012828251582757825,
        0.008760333785049328,
        -0.061994079530210286,
        -0.07586235113271926,
        -0.1329402331541526,
        0.03149625425483092,
        -0.01748217174339118,
        0.020249918114688563,
        0.10356927571160132,
        -0.009673330206083164,
        0.009717725755890168,
        -0.04189054794425938,
        0.07019002458586729,
        -0.031306891235328774,
        -0.030104161774349367,
        -0.06419378765250976,
        -0.08105490063826529,
        -0.01590643774082497,
        -0.03392453789628224,
        0.03605843403320337,
        -0.0016128036500410558,
        -0.038824583849510874,
        -0.036739130723489,
        -0.034263411279176946,
        -0.084135248136213,
        -0.03112806682379514,
        -0.0411338911490666,
        0.03871915989445486,
        0.013499385105862271,
        0.008370275012642424,
        0.007198460877214259,
        0.04274074505424043,
        -0.05724073478141272,
        -0.03523910218057107,
        0.035726690779799515,
        -0.022704835053671865,
        0.02541687285191721,
        -0.028783140178665814,
        0.05715265953693944,
        -0.11845824570804411,
        -0.021125475362299157,
        -0.027874714679347896,
        0.0390067156696285,
        -0.0037921101651997888,
        -0.007159080375226562,
        0.11445378202994386,
        -0.08398764388319158,
        0.05042589456728644,
        0.009626457661969824,
        -0.08755221122890795,
        0.03683660638433759,
        0.030736079487336674,
        -0.0037549699541074484,
        -0.09692478962353634,
        0.007284478943748793,
        0.0458312802383026,
        -0.003844640113458654,
        0.04316042447279269,
        -0.009088633383473332,
        0.030897462280949257,
        -0.08554839646783284,
        0.016793164320452567,
        -0.011093259619499755,
        0.07002054786558624,
        0.033200991933611965,
        -0.012307095738090483,
        -0.0002589209748326658,
        0.065664594313815,
        0.030527747762258865,
        -0.011189875142588993,
        -0.16114562415703304,
        0.0004912083599964092,
        -0.05189062325036757,
        0.08359157100023831,
        0.05887884595550269,
        -0.04780790885021776,
        -0.016985147839482347,
        0.025387009616426662,
        -0.043082758761720526,
        0.018776590217622287,
        -0.04158195394487811,
        0.06386018210120444,
        0.01094281088600578,
        0.019445059398589582
      ],
      [
        0.02942007598077566,
        0.02689707957979293,
        0.05605267416670286,
        0.005868547474493188,
        -0.011788329409143811,
        -0.02412885668056718,
        -0.02162000591712855,
        -0.029980345794493157,
        0.024312495446214624,
        0.08751668592790475,
        0.03371970781755332,
        -0.06226968788889339,
        0.05104837135777357,
        -0.03292571640293212,
        -0.02808538701715753,
        -0.02825874685146128,
        0.04314825502248934,
        0.03467844341280379,
        0.04132390812444571,
        -0.08743852666468867,
        -0.011053371637793888,
        0.1045169215062161,
        -0.11017338051058698,
        0.0001741647498014528,
        0.04500101305297079,
        -0.01622096277967662,
        -0.026492800323775812,
        -0.0302652852875864,
        0.07105847657762403,
        0.04865192149606334,
        0.08407328883216816,
        -0.03699999539236458,
        -0.058665148468824146,
        0.0044787080248375605,
        0.010889447331703462,
        -0.02785873081915405,
        -0.00580875118911014,
        0.04140518879976686,
        -0.046259870033467126,
        0.07376021188822003,
        0.03409116309858589,
        -0.011870623969021351,
        -0.020471755742428616,
        0.03929832224793194,
        0.04766864261368964,
        0.08925665655621039,
        -0.0058277616735196965,
        0.061277995564000924,
        0.010819102394014143,
        0.027888221105964648,
        0.02785524663156597,
        0.008120943092923603,
        -0.0204979072916774,
        -0.07581050744118036,
        0.08938165485214156,
        -0.05995029617443155,
        -0.026303706370610355,
        -0.05461226730446301,
        -0.05318895610195684,
        0.053596964767444404,
        -0.016977961679921164,
        -0.008045191545168029,
        -0.052210869425530666,
        -0.11947025459693232,
        -0.007597882154026865,
        0.03675322211009214,
        0.023823524812117514,
        0.005963901798270697,
        0.050913464125755835,
        -0.028851508755807227,
        -0.08046033566964349,
        0.018016994593004626,
        -6.846974830492566e-05,
        -0.023332211996935998,
        -0.012372637849196589,
        0.003087966205708962,
        0.10703361668613892,
        0.011428262438985223,
        -0.03434529153587418,
        -0.000232255466203556,
        0.053214910058082134,
        0.02887981271521277,
        0.04124260877894602,
        -0.06475067332484977,
        -0.06363079687444914,
        -0.0946585846216386,
        -0.018819462898110356,
        -0.03141074900173158,
        -0.0764128343094598,
        -0.03418809863441232,
        0.045765866839165524,
        -0.04563567969037231,
        0.018717517906443666,
        -0.05931190467011798,
        0.04738537078209593,
        0.026279874566153202,
        0.07274287207541033,
        0.00039016134319573765,
        -0.04566833326879145,
        0.022844358129364965,
        -0.015613719113412503,
        -0.015895968843905043,
        0.1356233393303171,
        -0.003917484848146241,
        0.0508241906727169,
        0.022385377176590268,
        0.07120199072916539,
        0.021629382400432825,
        -0.012007285740697088,
        -0.0798753132162976,
        0.03822104355424489,
        -0.020781031703844748,
        0.0024922218468281005,
        -0.054554225076341396,
        0.09938632559024804,
        0.056862868287179714,
        -0.006931051428853449,
        0.19167430793615628,
        -0.022977425807987468,
        -0.03538200831991119,
        0.060245787682501065,
        0.033358427828887545,
        0.10534441937240231,
        0.05072594871149141,
        -0.04764889847794445,
        -0.0025027140090635087,
        -0.08173714999975072,
        -0.01349484682998098
      ],
      [
        -0.010109623044636331,
        -0.057142952318646544,
        -0.007027388632175405,
        0.08812073686666955,
        -0.03314182397054268,
        0.004080457022659565,
        -0.008609056795923364,
        -0.027510468285722945,
        -0.03231738437748267,
        -0.070252686020867,
        -0.07522710486510824,
        0.01621866512559734,
        -0.05031799083774685,
        -0.07359822231611958,
        -0.004290987008990699,
        -0.04449864147489654,
        0.023643257147946375,
        -0.031840607494223454,
        0.06669106759553418,
        0.06387594280282836,
        -0.0011152967969066609,
        0.024299109648518502,
        -0.0386022535502306,
        0.018746177283697547,
        -0.02329171944532744,
        0.058700682476935835,
        0.0251356531655719,
        0.09787218671142,
        0.07047350486805162,
        -0.04800133734127553,
        0.044738554924077106,
        -0.02976086824961701,
        -0.06289521651793761,
        -0.02853643233417685,
        -0.02673571046191304,
        0.03503272858904483,
        0.023325859617328845,
        0.04388760388396753,
        0.03301432139696849,
        -0.07781891012604271,
        0.031173254378829424,
        0.061530206322223606,
        0.012110477499735709,
        0.04923002906342111,
        -0.07850822486922944,
        -0.011318970851271612,
        0.043514969809371085,
        -0.016444290262600064,
        -0.05617140270330276,
        0.015052702366268315,
        -0.028456228310684426,
        -0.03410159178774819,
        -0.012183231313064601,
        0.0822833469844821,
        -0.026221864538236377,
        -0.02340593764383367,
        -0.032418638786342255,
        0.06923559346661469,
        0.018317594212463068,
        -0.02313732023296679,
        -0.028386445223654348,
        0.011000388780184256,
        0.026672791124164937,
        -0.0136278755961624,
        -0.0021890141464315283,
        0.0010843634553883083,
        -0.006957132336660997,
        0.03419300518499925,
        0.006810635961182423,
        -0.05699294805183253,
        0.050789878681560374,
        0.010348491198286958,
        0.0202628831992079,
        -0.0652335129437619,
        0.008235267946037312,
        0.02801777335647089,
        -0.05847991539013687,
        -0.05784331850547416,
        -0.06586415704493478,
        0.020211169734178414,
        0.053597686323123804,
        -0.023458731005277567,
        -0.043701808223412617,
        0.062459422215302735,
        0.022147263386917488,
        0.011787354275625281,
        0.032367752903540735,
        -0.0588401482128233,
        0.011506313344630538,
        0.026020854078811686,
        -0.047482787259823626,
        0.0627974187569731,
        -0.0671426586735475,
        -0.08756394329901548,
        0.09694860099589223,
        -0.013919000763809657,
        0.09730723450507789,
        0.060443824637359235,
        -0.04406960529641838,
        -0.011467778577731649,
        0.013883662337537924,
        0.09105603399247036,
        -0.030120915532901298,
        0.011995201993422291,
        0.07911762291775408,
        0.006416916150360218,
        0.0035605281171930516,
        0.019665814788314816,
        0.10455761744567275,
        0.04261301995453078,
        -0.04314993883897371,
        -0.03208087292250645,
        0.038336791799760524,
        -0.1121658730195128,
        0.03986326409404201,
        -0.11405658263852168,
        0.07022341508080196,
        0.12653390196656458,
        -0.0101077781241258,
        -0.038858781452027,
        -0.027141955814711554,
        0.052648637749771014,
        0.05562644344492871,
        0.11744258339906061,
        0.11458820971350174,
        0.06056669812731505,
        -0.0028679544701804586,
        -0.0989989483448709
      ],
      [
        -0.07099871026737481,
        -0.005755797162035679,
        0.05298518563510764,
        0.0461075047397618,
        -0.009427090834655741,
        0.09176710291227201,
        0.1055764163729568,
        -0.007693943148736139,
        0.07685201315120041,
        0.027681209140782415,
        -0.019072283600933045,
        0.011655592649049924,
        -0.04260057813942946,
        -0.0039004943132055258,
        0.02380540958309463,
        -0.08114436430470563,
        -0.06607820137420829,
        0.007302053789034667,
        -0.009182455401158803,
        -0.03002154549086095,
        0.0793684896353862,
        -0.018199564570746833,
        0.06309947243318678,
        0.03170098763341291,
        0.05786025508451156,
        -0.13191351470149876,
        -0.10504254024966034,
        -0.034000630572109135,
        -0.0038164658582724434,
        0.081020114900698,
        0.032761980520467075,
        -0.05885805896626651,
        -0.02945005638955443,
        -0.003567688729775174,
        -0.0025867953903937375,
        0.0029692967710210046,
        0.004769432514663048,
        0.03584702416757464,
        0.026907459586315748,
        0.04154803965331986,
        0.023819415316792554,
        0.01276848813241889,
        0.021177222865001306,
        0.005012781840817581,
        -0.11735349362116755,
        -0.004432803251409146,
        -0.0205020801542075,
        -0.0642468971159099,
        -0.08332469533952531,
        0.03601906327533697,
        0.015581650938327328,
        0.04135825460782544,
        -0.027274208205587878,
        -0.037896509674457485,
        -0.009348935269398206,
        0.050011552273361765,
        0.0008642396197092478,
        0.006050342699580877,
        0.05638872336699756,
        2.3335662289168036e-05,
        -0.01737865710563998,
        0.02280346310182329,
        0.036376089043747735,
        0.1076063826058983,
        -0.01601834676060553,
        -0.042796037898221846,
        -0.03018624809243516,
        -0.024615885297211287,
        -0.0507829266472987,
        0.10104431726842676,
        0.022392005209580575,
        -0.01448280734433612,
        -0.012697309728516237,
        0.07911970273405064,
        0.013664002996216621,
        0.05146388654911088,
        0.05219784475505624,
        -0.03674097563832799,
        -0.001001278230631036,
        0.016377812844234094,
        -0.05444317416024617,
        -0.0855758257682026,
        -0.05856100714917315,
        0.03309510330796795,
        0.0733504887489416,
        -0.06915530231275674,
        -0.00830558860703521,
        -0.02399543644671886,
        -0.00848120242250018,
        0.0830574119864021,
        0.007025137495688455,
        0.012803480993968884,
        0.0017182019921036919,
        -0.11746887047233179,
        -0.006845162706469263,
        -0.029765656993639027,
        -0.049957047244048994,
        -0.06323833868848491,
        0.010784200338210191,
        0.028693653421386172,
        -0.005703804911041934,
        0.03901217520139765,
        0.03935796733090944,
        -0.004809685206216641,
        -0.022425722781147413,
        -0.005552896035134092,
        -0.03510851647266892,
        0.05364233407081473,
        -0.027197695180161807,
        0.013405056414437656,
        0.14105998094559605,
        0.11903637900575664,
        0.031534206718381246,
        -0.025377266462004038,
        0.08726077394345995,
        -0.004167250649877525,
        0.009504389321410558,
        0.019166046189899175,
        -0.07291288065353692,
        -0.08939648935379063,
        -0.025906206182903183,
        -0.017693566606064314,
        -0.0023167710211898116,
        -0.03790809434866802,
        0.03748418538258557,
        -0.06048251283901615,
        0.09436355184157859,
        -0.016539602160047354
      ],
      [
        -0.019347869374864265,
        -0.028432068264364917,
        0.006757198031073388,
        0.0013764686902186807,
        0.007001478933791042,
        -0.000680900873617231,
        0.042930969070643706,
        -0.06208568350302746,
        -0.03377759823779408,
        -0.0986616555657308,
        -0.047138471630067964,
        0.008334591283548723,
        -0.06791338682089876,
        -0.023663910860944416,
        -0.00028453372143321174,
        0.04261973664194624,
        0.043928996896264,
        0.02922384341440014,
        -0.049744629564151356,
        -0.06320887403049351,
        -0.02651219000378043,
        -0.05279268210426373,
        0.0439078886447448,
        0.0425383987621277,
        0.07736238655715996,
        0.02246923252285422,
        -0.015453512460667396,
        0.051433383328446415,
        0.00682536595994905,
        -0.0385950654364496,
        -0.09276366316581325,
        0.012106701126816598,
        -0.0017267430820882418,
        -0.07529436978536164,
        -0.010527538964238019,
        0.01512063178396581,
        0.08291977226862374,
        -0.006812037170974427,
        0.08268035321492961,
        0.059596456164409325,
        0.04676026727210325,
        -0.03256845859969592,
        0.16626179014398942,
        0.03692623909135506,
        -0.036812719217749014,
        0.009783768949296567,
        -0.03806408860247596,
        -0.016287787027678875,
        -0.0167285199016023,
        -0.0336227303110202,
        0.07242347782114507,
        0.023357371212147517,
        0.00611806380135609,
        -0.04086784076077164,
        -0.02620477883959867,
        0.09243789062223887,
        0.029599428206312613,
        0.07864882398260215,
        0.036143330572312234,
        0.06999395403052512,
        0.043971226851353754,
        0.05445921937229004,
        0.12010486831758159,
        -0.10343323384711905,
        0.021230260802425027,
        0.07435808726550429,
        -0.056536816502750095,
        -0.11092516636028273,
        -0.012523759357001564,
        -0.0993756508834636,
        -0.031494982118302615,
        0.04459881904495418,
        0.00042615525316093146,
        0.014359204059414973,
        0.08221572235252847,
        -0.034431553214014005,
        0.006575086512042225,
        -0.06479005295110409,
        0.10644584332542216,
        -0.06629105696596432,
        -0.02277295477349704,
        -0.021691702470580814,
        -0.01435013541983687,
        -0.08140863649212003,
        -0.03473990504314475,
        0.013663620059295181,
        -0.036233372792467765,
        0.009119378277849697,
        0.0243080346312231,
        -0.03174598004223529,
        -0.03810616535752067,
        0.053669769047257336,
        0.09497956990982512,
        -0.09752489120776203,
        0.14616419308035095,
        -0.0390208923204972,
        -0.020748242366340798,
        0.015971739926985886,
        -0.014896930871655337,
        0.0013124307551683836,
        -0.04959682040635649,
        -0.006401813184757791,
        0.06562287864596339,
        -0.013676790582561393,
        0.036855587913152396,
        -0.020588050217262965,
        -0.0011640570782914291,
        -0.04262071892580673,
        -0.0649162396535896,
        0.030679362987985077,
        0.0341891113077332,
        0.0033370558354451716,
        -0.037521162056423696,
        0.06929455290949547,
        -0.06981503058250568,
        -0.05523564944437957,
        0.07275217195014831,
        -0.012978626694640697,
        0.025382502794935608,
        -0.05466354243257169,
        0.05039969777258924,
        -0.07816925955772402,
        -0.03764250999611744,
        -0.012382106911800958,
        0.02789533923919166,
        0.009620122765895207,
        0.03094189651140371,
        0.05658541124706316
      ],
      [
        -0.06783201987246985,
        -0.023218622646456015,
        -0.03769512163318213,
        0.010026216423803773,
        -0.03218243570150306,
        -0.10412476557527835,
        -0.04169761140626024,
        0.01469024872498278,
        0.01888903686625317,
        0.029823357514398092,
        0.04102549184648171,
        0.017424577834004865,
        -0.04066228138896783,
        -0.0506492280063577,
        0.0031941234895994314,
        -0.037217354051817086,
        0.05598944466903546,
        -0.02467251470931166,
        -0.05121303347548075,
        -0.08983256166425733,
        -0.002305896294190415,
        -0.01731196230347819,
        -0.024330119431692807,
        -0.015624755126710937,
        -0.02989189083700659,
        0.020780404375318896,
        -0.015641461848972363,
        -0.012454232359620261,
        -0.03805313992888435,
        0.07482387756814411,
        -0.08513971854686829,
        0.13195041201764474,
        0.0049378186205134905,
        -0.013367955084559954,
        0.019479737782398088,
        -0.15287619972878472,
        -0.04854395436209289,
        -0.05698586954927355,
        -0.0008994947158452697,
        -0.01990095509725843,
        0.05055672131292002,
        -0.020869916268410574,
        -0.07058693946575009,
        0.08246373832177697,
        0.025281754176887977,
        -0.03135530011525608,
        0.02058963619120786,
        0.05480990101454435,
        -0.08425942422176043,
        -0.00437560500409878,
        0.049361313837076544,
        0.04809393985399818,
        0.06085117751520908,
        -0.075646678280357,
        0.06217429786994843,
        -0.005770807890585571,
        -0.038910096528377416,
        -0.011555871964441671,
        -0.02547571076105616,
        -0.021461610078073914,
        -0.051917958564501605,
        0.028901082674982634,
        0.04021808916677768,
        -0.016177202859597735,
        0.03023458909067157,
        0.013519912450499312,
        0.0742362991112149,
        -0.0364899368353817,
        -0.0034572666593444914,
        0.013859081747331524,
        0.01614219356945343,
        -0.0059305145977208585,
        0.016214980893881525,
        0.021794506119768655,
        0.023095563965157398,
        0.03010633618072626,
        -0.04282011035585756,
        0.024706594942939555,
        -0.054347507757138855,
        0.1232198234960106,
        0.009154849102911113,
        -0.039270659340125726,
        0.030805559279035697,
        0.0005535701452734842,
        0.04752345981314337,
        0.013546903879508134,
        0.01511193559820907,
        -0.03478007708561619,
        0.03723068193434291,
        0.06323980578309607,
        0.020672986657849373,
        -0.0679415576529996,
        -0.07023926099768571,
        -0.0682138500939925,
        0.02506905333986385,
        0.03372368200147314,
        -0.04610420779491012,
        0.05137858050817866,
        0.021428921499278195,
        0.07313400874369504,
        0.010474337353595122,
        -0.050083128570942576,
        -0.08063126567404594,
        0.03728217095968101,
        -0.03709368280014487,
        0.026676785598910586,
        0.005682074854215778,
        0.09921443129258976,
        -0.016298509489687984,
        -0.022541764535765226,
        0.045425626871721685,
        -0.05622773691195718,
        0.010474531920883807,
        -0.1199933325965175,
        -0.03540563083470606,
        -0.03988914171954244,
        0.029948269783014354,
        0.03665173671487474,
        0.04732433646583034,
        -0.020554181694282726,
        -0.06558864726947576,
        0.050473171636707684,
        -0.05154881207920329,
        -0.06586380641935882,
        -0.0012845985689417991,
        -0.0482437647458602,
        -0.08195125265103904,
        -0.009805935845419741
      ],
      [
        -0.009471431215988984,
        0.03790225259690956,
        0.07986235582435815,
        0.0020449062716195493,
        0.07203794257287496,
        0.0369034483573926,
        -0.09669332209627196,
        -0.06515007381552881,
        -0.04681149913748323,
        -0.037995387772616074,
        -0.061106955104388044,
        0.03056588503063418,
        0.01354726711607407,
        0.061581324290189934,
        -0.03261821755117207,
        0.08942110086750982,
        0.041118254961085364,
        0.005532773839102983,
        -0.008800497857333216,
        0.05982955878385983,
        -0.054910053565485846,
        -0.009096805571216695,
        0.042414452069621245,
        0.006452484622701054,
        -0.015706937641410856,
        -0.03737252485691731,
        0.07205970943262595,
        -0.02968581383581278,
        -0.10676500207780666,
        0.09063144042141805,
        0.03030761594698289,
        -0.014820973829034004,
        0.04802603738398821,
        0.0503969336579985,
        -0.05225030860870816,
        -0.00110505878355635,
        -0.027411812800422007,
        -0.022707292067681545,
        0.030578072524215242,
        0.008650068726040256,
        -0.031916978722707975,
        -0.08791547029034412,
        0.0841994265117645,
        -0.061263916047243266,
        -0.01533359481255119,
        -0.020063398879381474,
        -0.05159552694208931,
        -0.01026843332652962,
        0.09395363735554388,
        0.05140905633146765,
        0.05244061485350682,
        0.019806940368248024,
        0.05916973397513107,
        -0.06331719543470446,
        0.02786155677796841,
        0.06429723674320134,
        0.015191552254139241,
        -0.03956443962042554,
        -0.09463403224284737,
        -0.11680885549366728,
        0.023756424543380596,
        -0.020033205262101852,
        0.07894803959238055,
        -0.0013653050531124821,
        0.012103330078103814,
        0.02155133373380429,
        0.04303391273787243,
        -0.022949238361611123,
        0.014382285306536841,
        -0.015011921703493364,
        -0.08107663315794181,
        0.005096527087148886,
        0.014097900952197961,
        -0.09154698005229726,
        0.08799504682113315,
        -0.04855641360809116,
        -0.03764370229108089,
        -0.007938829195279046,
        -0.014805381320486522,
        -0.07451231971458884,
        0.05546687452236803,
        0.06681098901975466,
        -0.050400490975491055,
        -0.010238999177057166,
        0.043765646439095494,
        0.022771624965876088,
        -0.026189924427860552,
        -0.008042620245749093,
        -0.04605204713230906,
        0.032073170824102104,
        -0.021104893121843934,
        -0.03336020208021993,
        0.017724405679753013,
        0.12180006998951204,
        -0.02470991254503943,
        0.0739074269421546,
        -0.026741621195634044,
        -0.03688020162457449,
        -0.05192886744208455,
        -0.03288919621098249,
        -0.08321292577899204,
        -0.038463591445231156,
        -0.06375648074089832,
        -0.04513131114825054,
        0.10789310612931553,
        -0.0127210716755545,
        0.037020907869981245,
        -0.033748755601292944,
        0.042633174280699855,
        -0.0035251314034120277,
        -0.031610664679474765,
        -0.007421339778135986,
        0.007289373394848104,
        -0.0733481947762371,
        0.05788279327141488,
        -0.0275403492624867,
        -0.09050633291019024,
        -0.017160268992396015,
        0.017363410885174735,
        0.0179501186092626,
        0.026395141986215728,
        -0.033311193235231615,
        0.09163336162784286,
        -0.04638062491059522,
        0.053917722880418115,
        -0.01967357873167523,
        -0.004608110889329952,
        -0.006017034398608911
      ],
      [
        -0.005702529127732751,
        -0.03988463623730989,
        -0.06822269240912654,
        0.07603820059617611,
        -0.09010756977307798,
        -0.029145662671467162,
        0.012415357858095994,
        0.010787621154919031,
        0.04328682267189085,
        0.05698648135704372,
        -0.005024713984772361,
        -0.010175310710763677,
        0.053485965829181796,
        0.028876014609564515,
        0.020428037502889723,
        0.04107578995224263,
        0.029430771592812606,
        -0.11004030766472633,
        -0.010703925731901239,
        -0.024387599361949945,
        0.017911307315061305,
        0.021604530586570223,
        -0.0009710648259881863,
        0.1039885567709965,
        0.07433866853213851,
        0.09695591293342659,
        0.020045155368901287,
        0.09644877816328132,
        0.04498981104881008,
        0.02216964451998373,
        -0.031432735042061365,
        -0.011057746775171283,
        -0.054195503010369794,
        0.07601219237768685,
        0.03435823457386776,
        0.08657450877837052,
        0.05299807910588709,
        0.07345949915624692,
        -0.0429435186103339,
        0.011013956029983361,
        0.0991966220778363,
        -0.045509055928505404,
        0.003806746124072357,
        0.06740152956133356,
        -0.01508135148265028,
        -0.019022635883913282,
        -0.0639452538001317,
        0.0038327294940804025,
        -0.002017782474511066,
        -0.03866442385360524,
        0.007888171423261297,
        0.023459901049868843,
        -0.07782196158578276,
        0.054644569286476256,
        -0.03596233534508428,
        0.027286216597387246,
        -0.10396777264225214,
        -0.13391855471614994,
        0.0012541991403692918,
        -0.04002251988630082,
        0.039375079028654836,
        -0.027240543898632934,
        0.046976332046576336,
        0.022131898357916922,
        0.012628077086104061,
        0.05311003872609373,
        0.0035770488164477417,
        -0.04705348415637126,
        -0.04443155990833713,
        -0.04296952333494647,
        0.03937203277085597,
        0.05265008526207516,
        0.004323816600750404,
        -0.04625873127158625,
        -0.0075484287897539274,
        0.05312072953088776,
        -0.011738711796879443,
        0.06448617006752676,
        0.0881651830147752,
        0.0852080161798098,
        -0.04741940012879407,
        0.02215344305204812,
        -0.018161173722570353,
        -0.07895401186829404,
        -0.07450296750118157,
        0.07252641468477945,
        0.054833474016089505,
        -0.07475088744496586,
        -0.14097552433212873,
        0.005702791217648224,
        0.09354675112161565,
        -0.004631055944715842,
        0.03603229987665862,
        -0.0004081305249511577,
        -0.01338884914920476,
        -0.03781811339545753,
        -0.02023624597682349,
        -0.04042039746841196,
        0.0007480767249218996,
        0.02281784130866593,
        0.000910887203356723,
        0.03822733964594477,
        0.060824420178608264,
        -0.015592769023402302,
        -0.05095194189500043,
        0.03879859634689683,
        -0.03237453866486892,
        -0.07935124592857182,
        0.03858882615816662,
        0.05920635174289317,
        -0.015489471655036717,
        -0.004017130232582114,
        0.04519053416058648,
        -0.031628070771706526,
        0.02577153089417318,
        -0.00955183991925783,
        -0.026326939962501416,
        0.04727907233070887,
        -0.06773001186029848,
        -0.05879444930240247,
        -0.008709741086431966,
        0.01947248061593309,
        0.06009315289360074,
        0.08778326133353309,
        0.0593213318165706,
        -0.030952173934016558,
        -0.033685334283424635,
        0.038294611253578484
      ],
      [
        -0.03846759449621556,
        0.013725304888493436,
        -0.012841273253177656,
        0.02295484527998186,
        0.05576189536323199,
        0.007803638751248694,
        -0.09613798072468659,
        0.010333052291110024,
        -0.008812772408066105,
        0.07020266677086041,
        0.042755491455691214,
        0.04996174727382733,
        0.015619900232354557,
        -0.010062213779534224,
        -0.0374666612920422,
        -0.033689693228833466,
        0.016270397172426707,
        -0.047411383767853955,
        -0.03589312312431447,
        -0.007170548210880534,
        0.03929805066681721,
        0.06245442190806023,
        0.02877664431857127,
        0.02047663048560753,
        0.11345748241819564,
        -0.10161183729493398,
        -0.057350892670412684,
        0.04621000203184411,
        0.06401532317895622,
        0.05839105870992184,
        0.08275641666846524,
        -0.05856032186721282,
        0.025665293497179168,
        -0.006817262591794964,
        -0.03760448466182177,
        -0.014212882267558872,
        0.04044544352175257,
        -0.13656826962700316,
        -0.0068131724259130125,
        -0.04677139729546562,
        -0.017863441126531203,
        0.006352757912215292,
        -0.061049651656339805,
        0.00606192453513276,
        -0.05612301645043316,
        -0.012935938730454259,
        -0.05210704955728507,
        -0.04873828657865191,
        -0.012115363189735773,
        0.015512944300944638,
        0.03936314809792832,
        -0.044442301020953937,
        -0.012056744142521373,
        -0.003841258755538191,
        -0.091152593030545,
        -0.030983040165824267,
        0.005247067172904672,
        0.0019324326762047502,
        0.0636233587754927,
        -0.06548851104894103,
        -0.050626367416720185,
        0.029133214970224124,
        0.04820428421008505,
        0.06261835687916155,
        0.05125210187172854,
        0.03491010029995519,
        -0.04324415908866436,
        0.04721079228177578,
        0.043861790057273656,
        -0.0466583564108687,
        -0.09521906239926146,
        0.05173463076168212,
        0.024772409161215554,
        0.014920873467637298,
        -0.06180623428875619,
        0.00835843664677056,
        0.05874621107303277,
        -0.03890261996941982,
        0.07667328206615592,
        -0.11750879292937352,
        -0.011775792579572142,
        0.08099768917537427,
        0.08447095697519817,
        0.006175265329055643,
        -0.05832502542963229,
        0.016313929201968735,
        -0.06127379808385266,
        0.054388681738789316,
        -0.009969313861283975,
        -0.018251085608878635,
        0.044367540539457406,
        -0.035868089017063336,
        -0.04764234404485844,
        -0.00974070852602223,
        0.029404938605163435,
        -0.08303847971715798,
        0.005544274678555758,
        -0.023036207359347652,
        0.0002517338536793321,
        -0.06902965732577336,
        -0.03992228500372564,
        0.029546804205562417,
        0.06729539163097707,
        0.009502624987600275,
        0.0031495141484636216,
        0.017258156217075857,
        -0.025310208861449857,
        -0.1235554175195595,
        -0.08542525423041915,
        -0.021078699691714015,
        -0.13502002142825445,
        0.03310757740502785,
        -0.01874595683557223,
        -0.08349183083150537,
        0.014172170463922863,
        0.023734678036227013,
        0.016941965419277644,
        -0.07025198175614995,
        0.027053482128352242,
        -0.005637154503250691,
        0.012277660352050997,
        0.02481784803211442,
        0.10694219618352474,
        0.010969469315546333,
        -0.023736335088074746,
        -0.07512406198516416,
        0.07567745707920207,
        0.007033359350607736
      ],
      [
        -0.01447546296171523,
        -0.009315668915488531,
        -0.08169452110885785,
        -0.0604772474003859,
        -0.035454643707149694,
        0.01698831448039373,
        0.07772139461951255,
        0.07476803105622555,
        0.042241062729091006,
        -0.03606856932577468,
        0.010100443585277135,
        0.08907041261549689,
        -0.011151801816736024,
        0.03939009666345299,
        0.01638011496203158,
        0.024725614650968224,
        -0.03698207279607358,
        0.053909282908381546,
        -0.01184996446891167,
        0.05764091704166349,
        0.06369494205627656,
        -0.029027374194601357,
        0.035719617130190645,
        -0.04704054696990699,
        0.009940214712419213,
        0.060962945247294106,
        0.031345334438312375,
        -0.11499517886751315,
        0.0021472194228115177,
        -0.0027883517892921235,
        0.027077311497595086,
        -0.04183848141633779,
        -0.030666495692093065,
        0.027340494183927123,
        0.01942899135274469,
        0.023257084533035016,
        -0.031749426146986545,
        -0.0913155982203131,
        0.011893438191807933,
        0.0550361481847305,
        0.0173621261783052,
        0.13535983735104398,
        0.008194316301705109,
        -0.046670611115479925,
        0.051444367155553616,
        -0.028979181363738605,
        0.0362609297685015,
        0.06798605873492569,
        -0.03611070123096162,
        -0.0832365213328951,
        0.007032394885421781,
        -0.03473455512666368,
        0.025237441998720384,
        -0.03913615328324289,
        0.023404344601053232,
        -0.06010868829588981,
        0.043328150655492816,
        -0.0452020137251613,
        0.01175221045266336,
        0.056528688070976475,
        0.015169750520510944,
        -0.07769987981184268,
        -0.02443433519975129,
        0.0342431004576645,
        0.09933954290221862,
        0.09712874511624552,
        -0.010339064075274887,
        -0.03414208808606361,
        0.09363397489090607,
        -0.0856359759434216,
        0.027415934972162975,
        -0.04090759688438294,
        0.0016872226377652763,
        0.07477103530003062,
        0.0039858725952507815,
        -0.1152429581612475,
        -0.027283676675898774,
        -0.014036284555482963,
        -0.05449479452469925,
        -0.0987310185207534,
        -0.027432610234198854,
        -0.03114257992505271,
        -0.01548155489538753,
        0.028481439659418045,
        -0.01589806586128341,
        0.045135592582595814,
        -0.015617759769881365,
        -0.009742614322453446,
        -0.05079974387440951,
        -0.04951042760420206,
        0.05349802401115066,
        0.028272431404813884,
        0.021079807625192595,
        -0.03298433210374326,
        0.006183574373856231,
        -0.03395085829081965,
        0.04593099999303678,
        0.012530284967606506,
        -0.0018207980781517847,
        0.027930877015118538,
        -0.07838974113142097,
        -0.0009833006468313698,
        -0.051959781406675745,
        0.0810856205377415,
        0.02346551474279359,
        -0.0727801700804999,
        -0.02872125682388819,
        -0.07378755062225903,
        -0.020222013775838706,
        0.03169089720530893,
        -0.06731657464819094,
        -0.0901161387485595,
        0.05774215872464934,
        -0.035216258547351886,
        -0.024228532998962046,
        -0.011145244627196597,
        0.0453324476850706,
        0.042001723748645796,
        0.0280689100970733,
        0.0035361492310316584,
        0.03471757517667338,
        -0.05201167599482394,
        -0.03735328194460361,
        0.17807316858664243,
        0.05967804019757216,
        -0.07821740122683725,
        -0.09042275683901965,
        -0.02183376929790381
      ],
      [
        -0.016526801390404782,
        0.017498783694786652,
        0.06625338634000964,
        -0.008164030530375226,
        -0.021605850275236392,
        -0.01623442602143734,
        -0.04643749545782377,
        -0.0416031091932474,
        -0.004539863680089261,
        -0.06377324639503427,
        0.040970066298085465,
        0.044443485766685165,
        -0.03183483415967083,
        -0.03130949138287317,
        0.05687029918427759,
        0.0967253747726232,
        0.026184871986537482,
        -0.06387330298180421,
        0.045060176877016016,
        0.035365741602063516,
        0.023681840310184936,
        -0.03519439662612224,
        -0.017656190309292427,
        0.06112231923001123,
        -0.007422666362050843,
        0.036824616461176296,
        -0.016360289157020532,
        -0.021066306317037733,
        0.0023251777825822498,
        -0.02516116904425735,
        0.11262238442679494,
        0.03662526607255308,
        -0.0633067101551226,
        0.014971084410563563,
        0.0389982200150459,
        0.026220256310309564,
        0.0014492811306518168,
        -0.0021080800489938676,
        0.0492605648877304,
        0.008987269487580527,
        -0.0753597289272325,
        -0.023988919095704057,
        0.0574132963597482,
        -0.00943787632522697,
        0.05385088714946925,
        -0.12427245017597234,
        0.035033732660656854,
        -0.03592116075330629,
        0.02381617046591224,
        -0.024284249772109554,
        0.0583511206085352,
        -0.0044369238075493795,
        -0.007814959447775124,
        -0.01916016751530341,
        -0.0005474729225104723,
        0.10307387985052063,
        -0.08109242015294904,
        0.08541480432197945,
        -0.014357195946942937,
        0.12721407987810388,
        -0.17410346651402195,
        -0.011097340745755078,
        -0.04360304120184945,
        0.05065383078098055,
        -0.048533963567897645,
        -0.016730375559785782,
        -0.0780592257361223,
        -0.04190586247804574,
        0.0023971073352334832,
        0.09166753648263068,
        -0.014460320289202105,
        -0.0012296822896745634,
        -0.0673300365881043,
        0.08426646883782221,
        0.03864527752546776,
        -0.023661122761835546,
        0.029193858976874352,
        -0.018696497561927858,
        -0.07847643994631318,
        0.039726945336220634,
        0.010429128802214655,
        -0.0027944229426994467,
        0.03252648944616538,
        -0.04041538142653184,
        0.02492650636583902,
        -0.026892128319045656,
        -0.032541217162497894,
        -0.0351572256321778,
        0.039589175938345926,
        -0.09162609202370922,
        0.04030643231482903,
        -0.0547422720139487,
        0.061179560974422974,
        0.03038545013538719,
        -0.026815172845680347,
        -0.0026223836085989332,
        0.023540796602327073,
        0.09941113210587751,
        0.015172721840220935,
        0.03623681357694925,
        0.0703683671605803,
        -0.1169207987287405,
        -0.007077357972079396,
        -0.06506204642851986,
        0.08428712155003104,
        0.03332909499139303,
        -0.020481336913766968,
        -0.05917614338169484,
        -0.11253845099955752,
        0.028737910457117898,
        -0.01874863691276234,
        -0.07084764760366419,
        0.0020025717375404357,
        0.07480583523562255,
        -0.020879936160032152,
        -0.049430600682545116,
        0.014694658218117412,
        0.02346067424967426,
        -0.06233145591298974,
        0.0013459553004049555,
        -0.017893436836363942,
        -0.012536967747043435,
